/*!
 * The following copyright notice may not be removed under any circumstances.
 * 
 * Copyright:
 * Copyright (c) 2010 Anton Koovit.
 * 
 * Trademark:
 * Arvo is a trademark of Anton Koovit. 2010
 * 
 * Description:
 * Copyright (c) 2010 by Anton Koovit. All rights reserved under SIL openfont
 * License 1.1
 * 
 * Manufacturer:
 * Anton Koovit
 * 
 * Designer:
 * Anton Koovit
 * 
 * Vendor URL:
 * http://www.korkork.com/
 * 
 * License information:
 * http://www.korkork.com/license/arvo/
 */
Cufon.registerFont({"w":1542,"face":{"font-family":"arvo","font-weight":400,"font-stretch":"normal","units-per-em":"2048","panose-1":"2 0 0 0 0 0 0 0 0 0","ascent":"1638","descent":"-410","x-height":"31","bbox":"-203 -1969 2550 505.838","underline-thickness":"50","underline-position":"-50","unicode-range":"U+0020-U+2215"},"glyphs":{" ":{"d":false,"w":448},"A":{"d":"1040,-172r126,0r-120,-344r-583,0r-117,344r156,0r0,172r-492,0r0,-172r132,0r472,-1344r295,0r471,1344r152,0r0,172r-492,0r0,-172xm520,-682r468,0r-236,-678","k":{"y":76,"v":102,"Y":125,"W":100,"V":102,"U":125,"T":184}},"B":{"d":"1060,-768v112,63,216,153,216,317v0,212,-118,347,-270,416v-54,23,-111,35,-172,35r-691,0r0,-172r144,0r0,-1171r-144,0r0,-175r682,2v208,6,342,118,409,269v23,54,34,112,34,174v0,150,-93,251,-208,305xm483,-674r0,502r353,0v113,-6,179,-85,210,-174v59,-170,-39,-328,-210,-328r-353,0xm483,-1343r0,495r344,0v108,-3,178,-64,210,-144v56,-139,-25,-277,-121,-328v-28,-15,-58,-23,-89,-23r-344,0","w":1352},"C":{"d":"795,-1546v259,0,417,114,533,252r106,0r0,178r-215,0v-79,-137,-224,-244,-424,-244v-262,0,-409,171,-483,372v-54,146,-49,342,4,480v54,144,143,234,270,302v62,32,132,49,209,49v255,0,380,-127,475,-328r176,83v-93,237,-318,432,-649,432v-231,0,-392,-99,-517,-225v-179,-181,-270,-564,-154,-871v72,-190,202,-336,380,-418v89,-41,185,-62,289,-62","w":1509},"D":{"d":"143,-1516r564,0v318,8,510,165,633,373v86,144,126,380,71,584v-72,267,-245,454,-506,532v-62,19,-129,27,-198,27r-564,0r0,-172r144,0r0,-1171r-144,0r0,-173xm483,-1343r0,1171v164,-4,317,16,433,-46v180,-96,311,-277,311,-544v0,-263,-132,-443,-311,-536v-117,-61,-269,-41,-433,-45","w":1507},"E":{"d":"143,-1516r1086,0r0,429r-205,0r0,-256r-541,0r0,485r455,0r0,172r-455,0r0,514r541,0r0,-256r205,0r0,428r-1086,0r0,-172r144,0r0,-1171r-144,0r0,-173","w":1286},"F":{"d":"143,-1516r1086,0r0,429r-205,0r0,-256r-541,0r0,487r521,0r0,168r-521,0r0,516r152,0r0,172r-492,0r0,-172r144,0r0,-1171r-144,0r0,-173","w":1243,"k":{".":256,",":256,"o":111,"e":111,"c":111,"a":102,"A":76}},"G":{"d":"1219,-1116v-79,-137,-223,-248,-425,-244v-261,5,-407,172,-482,372v-87,231,-9,537,111,660v83,85,209,166,372,164v280,-3,428,-142,487,-385r-424,0r0,-172r641,0r0,727r-186,0r0,-304v-92,187,-265,310,-533,310v-351,0,-555,-199,-654,-463v-73,-192,-73,-424,0,-615v103,-269,314,-472,669,-480v261,-6,425,121,542,252r97,0r0,178r-215,0","w":1683},"H":{"d":"1208,-1516r492,0r0,172r-144,0r0,1172r144,0r0,172r-492,0r0,-172r152,0r0,-545r-877,0r0,545r152,0r0,172r-492,0r0,-172r144,0r0,-1172r-144,0r0,-172r492,0r0,172r-152,0r0,459r877,0r0,-459r-152,0r0,-172","w":1843},"I":{"d":"143,-1516r484,0r0,173r-144,0r0,1171r144,0r0,172r-484,0r0,-172r144,0r0,-1171r-144,0r0,-173","w":770},"J":{"d":"150,-1516r491,0r0,173r-127,0r0,1171v-13,102,-73,176,-120,249v-34,52,-75,105,-120,161r-172,-15v39,-60,75,-117,106,-172r39,-71v27,-57,68,-113,68,-185r0,-1138r-165,0r0,-173","w":682},"K":{"d":"1147,-1343r0,-173r348,0r0,173r-119,0r-664,559r621,612r162,0r0,172r-408,0r0,-172r-602,-602xm145,-1516r492,0r0,173r-154,0r0,1171r152,0r0,172r-492,0r0,-172r144,0r0,-1171r-142,0r0,-173","w":1567,"k":{"O":76}},"L":{"d":"1006,-172v49,-5,90,-37,90,-86r0,-191r190,0r0,449r-1143,0r0,-172r144,0r0,-1171r-144,0r0,-173r492,0r0,173r-152,0r0,1171r523,0","w":1296,"k":{"Y":219,"W":100,"V":102,"T":154}},"M":{"d":"143,-172r144,0r0,-1153r-144,0r0,-191r480,0r481,1309r487,-1309r455,0r0,191r-143,0r0,1153r143,0r0,172r-492,0r0,-172r162,0r0,-1164r-530,1336r-170,0r-537,-1339r0,1167r156,0r0,172r-492,0r0,-172","w":2189},"N":{"d":"1081,-1516r492,0r0,173r-129,0r0,1343r-256,0r-705,-1257r0,1085r156,0r0,172r-492,0r0,-172r140,0r0,-1171r-144,0r0,-175r408,0r692,1245r8,-48r0,-1022r-170,0r0,-173","w":1624},"O":{"d":"1092,-32v-170,81,-408,83,-580,4v-255,-116,-440,-368,-440,-730v0,-362,179,-606,434,-726v174,-82,414,-82,588,0v256,120,432,363,432,726v0,362,-180,606,-434,726xm586,-205v122,65,305,64,428,0v184,-96,307,-284,307,-553v0,-271,-130,-471,-322,-558v-130,-59,-293,-57,-416,5v-185,94,-307,284,-307,553v0,282,123,454,310,553","w":1597,"k":{"Y":51,"X":102}},"P":{"d":"756,-1516v279,6,467,131,467,410v0,198,-126,313,-279,372v-123,48,-298,27,-461,32r0,530r152,0r0,172r-492,0r0,-172r144,0r0,-1171r-144,0r0,-173r613,0xm1016,-1106v0,-164,-103,-237,-285,-237r-248,0r0,477r273,0v159,-4,260,-80,260,-240","w":1272,"k":{".":410,",":399,"a":76,"A":125}},"Q":{"d":"1210,326v-200,9,-305,-184,-512,-123r0,-179v-300,-46,-491,-238,-581,-498v-63,-185,-58,-412,9,-592v71,-190,202,-335,380,-418v174,-81,414,-82,588,0v256,120,432,363,432,726v0,338,-158,568,-378,698v-78,45,-164,74,-258,85v122,25,184,122,320,122v82,0,145,-43,160,-116r152,69v-35,139,-149,219,-312,226xm590,-205v130,65,298,64,424,0v184,-95,307,-284,307,-553v0,-271,-132,-469,-320,-558v-126,-60,-297,-58,-418,5v-185,94,-307,284,-307,553v0,281,121,457,314,553","w":1597},"R":{"d":"143,-1516r631,0v279,7,467,132,467,410v0,190,-127,300,-273,357v86,41,143,126,169,229r84,330r131,0r2,190r-295,0r-113,-461v-39,-148,-100,-241,-268,-241r-195,0r0,530r152,0r0,172r-492,0r0,-172r144,0r0,-1171r-144,0r0,-173xm1034,-1104v0,-165,-102,-239,-284,-239r-267,0r0,477r291,0v159,-3,260,-79,260,-238","w":1458},"S":{"d":"647,-1538v229,2,364,109,443,262r75,0r0,172r-245,0v1,-148,-78,-209,-187,-236v-188,-47,-391,23,-395,207v-3,164,124,197,246,238v265,89,579,136,575,489v-3,220,-140,344,-311,406v-64,22,-133,33,-209,33v-270,2,-420,-117,-483,-316r-76,0r0,-172r252,0v-5,184,62,238,189,279v38,12,81,16,128,16v171,-3,295,-69,295,-235v0,-167,-141,-220,-270,-258v-263,-77,-547,-128,-541,-467v4,-210,129,-328,295,-386v64,-22,137,-32,219,-32","w":1210},"T":{"d":"453,-172r139,0r0,-1180r-346,0r0,236r-205,0r0,-400r1352,0r0,400r-205,0r0,-236r-400,0r0,1180r156,0r0,172r-491,0r0,-172","w":1434,"k":{".":299,",":299,"u":184,"q":250,"o":246,"n":170,"e":246,"d":246,"c":246,"a":205,"A":184}},"U":{"d":"829,-166v285,0,390,-176,390,-471r0,-706r-164,0r0,-173r491,0r0,173r-135,0r0,684v-2,322,-132,538,-356,635v-138,59,-317,60,-455,0v-217,-95,-348,-305,-348,-617r0,-702r-139,0r0,-173r491,0r0,173r-155,0r0,706v2,285,107,471,380,471","w":1550,"k":{".":76,",":76}},"V":{"d":"1013,-1516r492,0r0,173r-131,0r-491,1343r-275,0r-484,-1343r-134,0r0,-173r492,0r0,173r-132,0r389,1169r417,-1169r-143,0r0,-173","w":1485,"k":{".":190,"o":125,"A":102}},"W":{"d":"2058,-1516r492,0r0,173r-132,0r-433,1343r-306,0r-411,-1321r-379,1321r-303,0r-442,-1343r-134,0r0,-173r492,0r0,173r-132,0r367,1165r387,-1338r299,0r412,1338r374,-1165r-151,0r0,-173","w":2560},"X":{"d":"950,-1516r492,0r0,173r-112,0r-410,569r428,602r94,0r0,172r-492,0r0,-172r185,0r-324,-451r-326,451r177,0r0,172r-492,0r0,-172r99,0r432,-603r-408,-568r-123,0r0,-173r492,0r0,173r-146,0r295,415r298,-415r-159,0r0,-173","w":1500,"k":{"O":76}},"Y":{"d":"51,-1516r492,0r0,173r-144,0r285,487r305,-487r-158,0r0,-173r492,0r0,173r-129,0r-426,646r0,525r156,0r0,172r-492,0r0,-172r139,0r0,-530r-402,-641r-118,0r0,-173","w":1354,"k":{".":215,",":201,"s":184,"A":154}},"Z":{"d":"1163,-1292r-913,1120r711,0r0,-252r196,0r0,424r-1106,0r0,-227r900,-1116r-687,0r0,256r-196,0r0,-429r1095,0r0,224","w":1214},"_":{"d":"0,154r1024,0r0,102r-1024,0r0,-102","w":1024},"a":{"d":"508,-1059v250,0,388,118,388,369r-1,518r115,0r0,172r-301,0r0,-96v-74,66,-160,125,-293,125v-160,0,-267,-76,-320,-186v-53,-108,-13,-259,46,-323v79,-84,200,-130,358,-132v86,0,145,5,210,17r1,-85v-1,-143,-79,-215,-221,-215v-119,0,-220,30,-293,76r-61,-129v97,-61,219,-111,372,-111xm250,-291v-7,171,220,195,351,131v41,-19,81,-48,108,-79r1,-234r-216,0v-136,3,-238,50,-244,182","w":1120},"b":{"d":"857,-24v-144,65,-363,44,-464,-41r0,65r-186,0r0,-1384r-150,0r0,-172r336,0r0,606v110,-96,326,-151,492,-73v169,79,276,242,276,486v0,260,-121,430,-304,513xm393,-229v65,72,248,114,373,60v127,-55,203,-178,203,-361v0,-174,-75,-289,-196,-342v-138,-61,-306,0,-380,86r0,557","w":1253},"c":{"d":"397,-1028v184,-84,430,-28,534,96r105,0r0,172r-188,0v-55,-122,-229,-187,-378,-118v-120,55,-191,182,-191,358v0,175,74,294,191,352v38,18,79,27,122,27v144,-2,230,-76,280,-183r154,76v-78,158,-209,277,-436,277v-245,0,-391,-142,-461,-328v-49,-132,-49,-311,2,-442v51,-131,143,-230,266,-287","w":1118},"d":{"d":"389,-1022v142,-60,358,-52,463,35r0,-397r-141,0r0,-172r327,0r0,1384r152,0r0,172r-338,0r0,-85v-63,63,-146,108,-266,108v-242,0,-388,-131,-456,-317v-48,-128,-51,-321,-2,-452v48,-130,136,-224,261,-276xm285,-530v0,232,101,391,325,391v118,0,181,-36,242,-98r0,-580v-80,-72,-249,-108,-372,-55v-121,52,-195,168,-195,342","w":1268},"e":{"d":"997,-109v-150,112,-395,187,-613,103v-189,-73,-292,-251,-292,-516v0,-246,105,-415,276,-498v108,-52,299,-57,408,-8v182,81,247,274,246,534r-746,0v1,218,123,351,328,351v132,0,221,-38,318,-93xm823,-639v-11,-163,-80,-269,-256,-268v-182,0,-256,110,-281,268r537,0","w":1175},"f":{"d":"620,-1407v-117,1,-178,78,-178,203r0,168r240,0r0,151r-240,0r0,713r162,0r0,172r-504,0r0,-172r156,0r0,-713r-171,0r0,-151r171,0r0,-162v0,-258,160,-387,433,-353v71,9,128,27,179,52r-57,133v-44,-23,-121,-42,-191,-41","w":745},"g":{"d":"223,162v97,89,293,151,469,103v135,-37,168,-173,166,-356v-64,67,-148,114,-272,114v-242,0,-388,-131,-456,-317v-48,-128,-52,-321,-2,-452v70,-187,220,-315,468,-315v116,0,189,25,262,78r0,-53r186,0r0,995v-1,327,-150,500,-479,498v-187,-1,-336,-56,-442,-144xm285,-530v0,232,101,391,325,391v116,0,195,-43,248,-106r0,-567v-80,-76,-251,-114,-378,-60v-121,52,-195,168,-195,342","w":1200},"h":{"d":"696,-887v-102,1,-189,57,-254,107r0,608r150,0r0,172r-492,0r0,-172r156,0r0,-1212r-142,0r0,-172r328,0r0,634r6,0v76,-70,172,-133,314,-133v244,0,361,138,362,387r0,496r156,0r0,172r-492,0r0,-172r142,0r0,-473v1,-156,-81,-243,-234,-242","w":1354},"i":{"d":"92,-1036r338,0r0,864r156,0r0,172r-492,0r0,-172r148,0r0,-692r-150,0r0,-172xm338,-1270v-79,0,-131,-55,-131,-133v0,-77,53,-129,131,-129v76,0,129,53,129,129v0,78,-51,133,-129,133","w":657},"j":{"d":"61,332v125,-18,169,-126,170,-273r0,-923r-147,0r0,-172r336,0r0,1116v-4,236,-112,380,-340,391xm326,-1282v-72,0,-119,-49,-119,-121v0,-70,48,-117,119,-117v70,0,118,47,118,117v0,71,-47,121,-118,121","w":604},"k":{"d":"92,-1556r365,0r0,172r-2,0r0,774r180,0r246,-254r-62,0r0,-172r393,0r0,172r-131,0r-315,325r344,367r125,0r0,172r-219,0r-424,-463r-137,0r0,291r86,0r0,172r-443,0r0,-172r170,0r0,-1212r-176,0r0,-172","w":1286},"l":{"d":"92,-1556r336,0r0,1384r156,0r0,172r-492,0r0,-172r150,0r0,-1212r-150,0r0,-172","w":666},"m":{"d":"694,-887v-103,1,-189,58,-256,108r0,607r146,0r0,172r-484,0r0,-172r144,0r0,-692r-144,0r0,-172r330,0v2,39,-4,86,2,121v85,-70,179,-140,328,-140v158,0,264,60,318,171v95,-82,197,-171,367,-171v245,0,361,137,361,387r0,496r144,0r0,172r-484,0r0,-172r146,0r0,-473v1,-156,-80,-242,-233,-242v-102,1,-201,57,-257,113r0,602r143,0r0,172r-483,0r0,-172r146,0r0,-473v1,-156,-81,-243,-234,-242","w":2050},"n":{"d":"760,-1055v244,0,361,138,362,387r0,496r144,0r0,172r-484,0r0,-172r146,0r0,-473v1,-156,-81,-243,-234,-242v-103,1,-189,58,-256,108r0,607r146,0r0,172r-484,0r0,-172r144,0r0,-692r-144,0r0,-172r330,0v2,39,-4,87,2,122v84,-71,178,-141,328,-141","w":1366},"o":{"d":"125,-295v-51,-131,-51,-317,1,-447v74,-189,226,-324,480,-324v253,0,408,132,480,322v50,131,51,314,0,446v-73,191,-225,329,-480,329v-256,0,-407,-136,-481,-326xm932,-518v0,-230,-104,-388,-326,-388v-217,0,-323,161,-323,388v0,179,78,303,199,362v77,37,175,35,252,0v123,-58,198,-182,198,-362","w":1225,"k":{".":49}},"p":{"d":"853,-18v-138,64,-344,45,-462,-18r0,335r162,0r0,172r-492,0r0,-172r142,0r0,-1163r-144,0r0,-172r330,0r0,86v110,-96,326,-151,492,-73v169,79,276,242,276,486v0,262,-121,434,-304,519xm391,-227v65,73,245,120,371,63v126,-57,203,-182,203,-366v0,-174,-75,-289,-196,-342v-137,-60,-304,-2,-378,84r0,561","w":1249},"q":{"d":"389,-1022v141,-59,353,-51,459,32r0,-46r186,0r0,1335r156,0r0,172r-492,0r0,-172r150,0r0,-380v-63,61,-145,104,-262,104v-242,0,-388,-131,-456,-317v-48,-128,-51,-321,-2,-452v48,-130,136,-224,261,-276xm285,-530v0,232,101,384,325,391v108,3,188,-42,238,-94r0,-587v-80,-70,-246,-104,-368,-52v-121,52,-195,169,-195,342","w":1206},"r":{"d":"431,-893v46,-78,105,-152,224,-151r190,2r0,225r-190,0r0,-64v-127,8,-193,92,-217,209r0,500r176,0r0,172r-514,0r0,-172r143,0r1,-692r-144,0r0,-172r331,0r0,143","w":960,"k":{".":150,",":170}},"s":{"d":"698,-758v-4,-113,-101,-155,-213,-155v-100,0,-182,36,-182,131v0,90,56,108,137,139v194,74,451,111,445,364v-5,214,-165,305,-385,310v-155,3,-255,-53,-314,-142r-104,0r0,-172r207,0v4,117,98,160,215,160v105,0,198,-40,198,-141v0,-90,-61,-114,-143,-148v-183,-76,-436,-105,-436,-350v0,-206,149,-305,362,-305v161,0,244,42,321,137r97,0r0,172r-205,0","w":993},"t":{"d":"485,25v-210,0,-273,-126,-272,-340r3,-570r-165,0r0,-151r167,0r0,-248r182,-86r0,334r243,0r0,151r-245,0r-3,598v-2,104,31,167,129,166v64,0,96,-11,144,-33r43,125v-65,33,-128,54,-226,54","w":762},"u":{"d":"607,-150v97,0,189,-39,256,-83r0,-631r-139,0r0,-172r334,0r0,864r115,0r0,172r-302,0r0,-96v-85,65,-189,114,-329,114v-237,0,-341,-144,-342,-387r0,-495r-140,0r0,-172r334,0r0,645v-1,151,69,241,213,241","w":1350},"v":{"d":"20,-1036r358,0r0,172r-97,0r256,714r250,-714r-63,0r0,-172r328,0r0,172r-89,0r-339,880r-184,0r-338,-880r-82,0r0,-172","w":1100,"k":{".":190,",":236}},"w":{"d":"20,-1036r328,0r0,172r-48,0r181,661r248,-833r156,0r237,831r189,-659r-60,0r0,-172r328,0r0,172r-89,0r-284,880r-172,0r-235,-827r-234,827r-174,0r-282,-880r-89,0r0,-172","w":1640,"k":{".":190}},"x":{"d":"694,-172r59,0r-206,-256r-201,256r51,0r0,172r-344,0r0,-172r84,0r315,-367r-296,-325r-105,0r0,-172r344,0r0,172r-39,0r191,246r193,-246r-50,0r0,-172r344,0r0,172r-89,0r-293,338r310,354r76,0r0,172r-344,0r0,-172","w":1090},"y":{"d":"31,-1036r393,0r0,172r-123,0r243,661r254,-661r-122,0r0,-172r393,0r0,172r-107,0r-461,1163r142,0r0,172r-418,0r0,-172r126,0r110,-285r-346,-878r-84,0r0,-172","w":1176,"k":{".":215,",":215}},"z":{"d":"76,-115r525,-766r-331,0r0,146r-184,0r0,-301r741,0r0,118r-524,762r354,0r0,-176r193,0r0,332r-774,0r0,-115","w":924},",":{"d":"205,-283r219,86r-260,537r-144,-53","w":569,"k":{" ":236}},"-":{"d":"94,-496r0,-172r551,0r0,172r-551,0","w":737},"\u00ad":{"d":"94,-496r0,-172r551,0r0,172r-551,0","w":737},".":{"d":"227,12v-79,0,-131,-55,-131,-133v0,-77,54,-129,131,-129v76,0,129,53,129,129v0,78,-51,133,-129,133","w":456},"0":{"d":"657,-1540v452,0,570,336,570,778v0,442,-131,780,-572,780v-438,0,-563,-336,-567,-774v-1,-219,51,-442,140,-565v90,-124,206,-219,429,-219xm293,-762v1,321,42,602,362,602v322,0,369,-289,369,-602v0,-318,-51,-601,-367,-606v-154,-3,-242,73,-291,170v-47,94,-74,290,-73,436","w":1330},"1":{"d":"242,-172r147,0r0,-1109r-307,167r0,-209r422,-236r80,0r0,1387r149,0r0,172r-491,0r0,-172","w":858},"2":{"d":"526,-1358v-160,0,-251,96,-260,254r-180,0v7,-208,121,-341,274,-406v177,-74,399,-3,495,90v100,96,165,306,87,468v-37,76,-81,144,-139,213r-473,563r647,0r0,176r-889,0r0,-147r590,-713v65,-81,153,-214,93,-350v-39,-87,-121,-148,-245,-148","w":1100},"3":{"d":"428,-870v209,12,352,-64,352,-250v0,-154,-112,-252,-278,-252v-100,0,-149,33,-204,97v-32,37,-49,79,-52,124r-190,0v17,-189,131,-303,279,-364v184,-76,411,1,507,99v68,69,129,164,129,286v0,172,-90,272,-212,333v133,56,228,169,228,355v0,220,-130,355,-293,422v-183,77,-424,10,-524,-91v-69,-70,-116,-146,-129,-254r192,0v36,148,220,247,395,178v97,-38,171,-125,171,-257v0,-201,-146,-290,-371,-275r0,-151","w":1110},"4":{"d":"92,-596r539,-920r213,0r-513,906r388,0r0,-250r196,-14r0,264r226,0r0,172r-226,0r0,266r150,0r0,172r-492,0r0,-172r146,0r0,-266r-629,0","w":1251},"5":{"d":"692,-780v-138,-58,-320,-7,-393,80r-147,-23r0,-793r854,0r0,166r-689,0r0,456v71,-47,139,-77,250,-77v242,0,398,132,473,307v51,119,50,265,0,384v-75,180,-232,311,-481,311v-257,0,-408,-134,-485,-320r164,-82v47,133,148,236,321,236v160,0,261,-91,312,-207v35,-80,35,-183,0,-262v-34,-81,-98,-142,-179,-176","w":1139},"6":{"d":"475,-949v116,-49,261,-46,377,1v167,68,299,209,299,436v0,262,-136,423,-329,496v-126,48,-275,50,-400,-1v-183,-75,-328,-223,-328,-471v0,-142,59,-248,117,-354r371,-674r233,0xm281,-486v4,212,131,332,342,332v157,0,261,-85,314,-197v38,-81,36,-200,-2,-279v-56,-117,-172,-189,-339,-189v-103,0,-161,34,-218,85v-59,52,-99,137,-97,248","w":1249},"7":{"d":"182,-172r117,0v143,-402,322,-784,502,-1151r-568,0r0,117r-192,0r0,-310r995,0r0,150r-138,276r-142,298r-137,310v-44,105,-84,208,-120,310r126,0r0,172r-443,0r0,-172","w":1077},"8":{"d":"370,-830v-127,-80,-215,-292,-132,-472v65,-139,196,-242,393,-242v194,0,323,105,389,242v22,48,33,100,33,155v-1,144,-77,255,-169,318v124,78,228,194,228,387v0,219,-135,353,-297,422v-115,49,-262,49,-378,0v-164,-69,-298,-202,-298,-422v0,-195,105,-311,231,-388xm508,-708v-131,49,-231,202,-162,374v51,128,228,217,398,153v128,-48,232,-209,162,-375v-53,-127,-228,-216,-398,-152xm727,-1363v-216,-79,-411,102,-331,313v41,108,190,181,331,128v107,-40,194,-177,134,-314v-26,-58,-73,-105,-134,-127","w":1276},"9":{"d":"779,-572v-181,80,-423,1,-523,-98v-75,-75,-153,-200,-153,-339v0,-262,136,-423,329,-497v125,-48,283,-48,406,1v182,73,322,224,322,472v0,142,-58,248,-117,354r-380,679r-233,0xm973,-1035v-4,-212,-131,-332,-342,-332v-157,0,-261,85,-314,197v-38,81,-36,202,2,280v54,112,164,185,319,188v123,2,174,-30,238,-86v59,-52,99,-136,97,-247","w":1270},"!":{"d":"342,12v-79,0,-131,-55,-131,-133v0,-77,53,-129,131,-129v76,0,129,53,129,129v0,78,-51,133,-129,133xm211,-1577r260,0r-41,1167r-178,0","w":682},"%":{"d":"276,-860v-147,-58,-252,-240,-176,-434v46,-119,154,-205,317,-205v163,0,270,87,317,205v77,192,-31,377,-177,434v-83,32,-199,33,-281,0xm587,-1167v0,-102,-67,-168,-170,-168v-104,0,-173,65,-173,168v0,103,69,172,173,172v103,0,170,-69,170,-172xm1252,-1540r195,0r-1041,1556r-194,0xm1142,-16v-147,-59,-252,-240,-176,-434v47,-119,155,-205,317,-205v162,0,266,89,317,205v57,131,2,290,-68,362v-78,81,-255,127,-390,72xm1453,-323v0,-102,-68,-168,-170,-168v-102,0,-172,65,-172,168v0,103,69,172,172,172v103,0,170,-69,170,-172","w":1730},"&":{"d":"1292,-764v-26,141,-76,278,-141,393r276,256r-139,121r-236,-228v-104,122,-228,236,-446,236v-215,0,-355,-114,-427,-266v-60,-127,-35,-306,33,-400v59,-82,105,-122,212,-177v-90,-87,-201,-170,-201,-338v0,-181,107,-292,241,-349v96,-40,221,-39,316,1v135,58,241,169,244,348v4,234,-157,310,-308,392r306,285v38,-84,64,-182,82,-274r188,0xm554,-703v-74,33,-148,64,-190,131v-39,63,-55,171,-20,250v52,117,202,194,368,149v99,-27,167,-91,222,-163xm706,-1364v-185,-72,-371,90,-288,284v27,65,110,129,163,180v101,-47,202,-90,247,-190v56,-123,-28,-238,-122,-274","w":1468},"'":{"d":"216,-1059r-179,0r0,-518r227,-16","w":340},"\"":{"d":"251,-1059r-169,0r-41,-518r228,0xm588,-1059r-169,0r-14,-518r230,0","w":651},"(":{"d":"338,-590v0,405,147,693,330,930r-138,111v-249,-307,-466,-765,-362,-1321v57,-306,196,-552,362,-760r138,110v-183,237,-330,525,-330,930","w":721},")":{"d":"190,-1630v249,308,468,763,363,1320v-58,306,-197,553,-363,761r-137,-111v183,-237,330,-525,330,-930v0,-405,-148,-693,-330,-930","w":721},"*":{"d":"483,-1295r248,-81r37,119r-249,80r157,214r-109,72r-149,-206r-148,204r-108,-70r155,-212r-258,-82r39,-125r252,82r0,-246r133,0r0,251","w":836},"+":{"d":"143,-791r420,0r0,-419r182,0r0,419r422,0r0,183r-422,0r0,422r-182,0r0,-422r-420,0r0,-183","w":1311},"\/":{"d":"637,-1569r174,0r-600,1598r-174,0","w":848},"@":{"d":"952,-912v143,-65,346,-39,453,39r0,-83r184,0r0,663v1,96,33,152,120,152v151,0,220,-128,241,-255v65,-391,-136,-659,-390,-804v-158,-90,-412,-142,-632,-78v-287,84,-493,278,-569,568v-110,423,98,764,373,921v111,64,248,111,413,111v169,0,310,-49,422,-117r94,157v-189,124,-505,189,-782,108v-353,-103,-595,-345,-699,-698v-80,-273,-9,-590,101,-769v133,-215,330,-382,598,-459v272,-78,592,-11,774,96v213,125,377,312,457,566v69,221,24,495,-80,634v-73,97,-166,180,-326,183v-126,2,-205,-62,-251,-143v-107,101,-336,148,-505,74v-163,-71,-286,-210,-286,-433v0,-222,129,-360,290,-433xm1405,-604v-47,-91,-129,-162,-264,-162v-139,0,-229,76,-273,176v-49,112,-6,254,58,312v51,46,121,83,215,83v129,1,221,-69,264,-156r0,-253","w":2310},"[":{"d":"238,-1706r403,0r0,151r-219,0r0,1780r219,0r0,152r-403,0r0,-2083","w":721},"\\":{"d":"41,-1581r162,0r704,1606r-162,0","w":948},"]":{"d":"299,-1555r-219,0r0,-151r403,0r0,2083r-403,0r0,-152r219,0r0,-1780","w":721},"\u2022":{"d":"504,-548v-223,83,-409,-114,-330,-330v41,-111,186,-189,330,-134v111,42,192,188,134,331v-25,62,-72,110,-134,133","w":811},"\u00b6":{"d":"41,-1104v0,-291,201,-412,496,-412r598,0r0,162r-80,0r0,1723r-181,0r0,-1723r-229,0r0,1723r-180,0r0,-1070v-192,-15,-329,-104,-393,-247v-21,-48,-31,-100,-31,-156","w":1274},"\u00df":{"d":"588,-180v176,39,309,-56,364,-182v53,-124,1,-270,-68,-330v-68,-59,-163,-97,-296,-86r0,-186v61,1,141,0,172,-20v51,-32,97,-78,97,-154v0,-148,-95,-232,-247,-232v-139,0,-213,94,-213,234r0,1136r-381,0r0,-172r185,0r0,-987v7,-178,104,-299,235,-361v98,-46,245,-47,349,-4v148,61,264,186,264,382v0,119,-47,199,-106,259v124,86,225,205,225,409v0,231,-135,383,-308,452v-83,33,-173,44,-272,30r0,-188","w":1247},"\u00ae":{"d":"525,-92v-291,-168,-509,-519,-393,-966v79,-305,296,-509,598,-598v234,-68,509,-10,662,86v236,148,425,371,425,739v0,368,-189,593,-425,739v-162,101,-430,153,-662,86v-73,-20,-142,-49,-205,-86xm336,-1100v-68,168,-72,370,0,534v101,232,303,412,622,412v318,0,527,-179,624,-412v73,-174,69,-313,0,-512v-68,-195,-187,-299,-360,-376v-160,-71,-367,-70,-528,0v-166,72,-289,183,-358,354xm1352,-1071v5,137,-64,204,-160,245v93,49,101,196,133,308r82,0r2,158r-256,0r-51,-254v-17,-128,-110,-168,-260,-158r0,254r92,0r0,158r-379,0r0,-158r98,0r0,-670r-102,0r0,-158r483,0v187,5,312,94,318,275xm1147,-1057v-2,-93,-66,-131,-170,-131r-135,0r0,260v145,1,310,18,305,-129","w":1919},"\u00a9":{"d":"525,-92v-291,-168,-509,-519,-393,-966v79,-305,296,-509,598,-598v234,-68,509,-10,662,86v236,148,425,371,425,739v0,368,-189,593,-425,739v-162,101,-430,153,-662,86v-73,-20,-142,-49,-205,-86xm336,-1100v-68,168,-72,370,0,534v101,232,303,412,622,412v318,0,523,-181,624,-412v72,-164,68,-366,0,-534v-69,-171,-195,-282,-360,-354v-160,-70,-367,-70,-528,0v-166,72,-289,183,-358,354xm1305,-477v-69,82,-180,145,-326,145v-237,0,-387,-135,-463,-306v-52,-120,-51,-272,0,-392v83,-196,289,-351,572,-294v101,20,181,74,243,134r-141,131v-71,-78,-210,-112,-331,-63v-134,54,-236,234,-163,408v44,106,138,185,283,188v78,2,155,-37,192,-80","w":1919},"\u00ab":{"d":"514,-172r-192,0r-220,-393r220,-393r192,0r-229,393xm938,-172r-193,0r-219,-393r219,-393r193,0r-229,393","w":1040},"\u00bb":{"d":"332,-565r-230,-393r193,0r219,393r-219,393r-193,0xm756,-565r-230,-393r193,0r219,393r-219,393r-193,0","w":1040},"\u2026":{"d":"352,25v-87,0,-147,-60,-147,-148v0,-88,59,-147,147,-147v89,0,150,59,150,147v0,89,-61,148,-150,148xm1024,25v-87,0,-147,-60,-147,-148v0,-88,59,-147,147,-147v89,0,150,59,150,147v0,89,-61,148,-150,148xm1696,25v-88,0,-148,-60,-148,-148v0,-87,60,-147,148,-147v89,0,149,59,149,147v0,88,-60,148,-149,148","w":2048},"\u2013":{"d":"0,-647r1024,0r0,162r-1024,0r0,-162","w":1024},"\u2014":{"d":"0,-647r2048,0r0,162r-2048,0r0,-162","w":2048},"\u201c":{"d":"805,-1556r131,63r-191,514r-190,-78xm379,-1556r131,63r-191,514r-190,-78","w":1065},"\u201d":{"d":"223,-979r-131,-63r191,-514r190,77xm649,-979r-131,-63r191,-514r190,77","w":1028},"\u2018":{"d":"362,-1556r132,63r-191,514r-190,-78","w":606},"\u2019":{"d":"276,-1565r220,86r-260,537r-144,-53","w":606},"\u2039":{"d":"514,-172r-192,0r-220,-393r220,-393r192,0r-229,393","w":616},"\u203a":{"d":"332,-565r-230,-393r193,0r219,393r-219,393r-193,0","w":616},"\u00b1":{"d":"102,-893r420,0r0,-420r183,0r0,420r421,0r0,182r-421,0r0,402r-183,0r0,-402r-420,0r0,-182xm102,-162r1024,0r0,162r-1024,0r0,-162","w":1229},"\u2212":{"d":"51,-647r1024,0r0,162r-1024,0r0,-162","w":1075},"#":{"d":"170,-1198r252,0r63,-318r191,0r-62,318r351,0r63,-318r191,0r-62,318r225,0r-39,199r-225,0r-81,415r239,0r-37,195r-240,0r-75,389r-193,0r76,-389r-351,0r-75,389r-197,0r77,-389r-241,0r41,-195r239,0r82,-415r-253,0xm494,-584r351,0r81,-415r-351,0","w":1423},"<":{"d":"10,-761r843,-423r0,185r-678,315r678,315r0,185r-843,-421r0,-156","w":1001},"=":{"d":"86,-446r750,0r0,141r-750,0r0,-141xm86,-784r750,0r0,141r-750,0r0,-141","w":922},">":{"d":"1007,-605r-843,421r0,-185r678,-315r-678,-315r0,-185r843,423r0,156","w":1147},"?":{"d":"469,12v-79,0,-131,-55,-131,-133v0,-77,53,-129,131,-129v76,0,129,53,129,129v0,78,-51,133,-129,133xm381,-336v-1,-183,15,-317,94,-415v67,-85,188,-164,267,-237v55,-51,86,-155,47,-244v-35,-79,-101,-147,-209,-147v-173,0,-266,99,-283,254r-176,-12v16,-192,127,-318,278,-381v104,-44,257,-44,359,0v140,59,237,179,237,367v0,167,-93,264,-207,346v-66,48,-166,119,-194,213v-30,98,-32,138,-33,256r-180,0","w":1065},"$":{"d":"616,-1085v-122,-1,-223,33,-223,133v0,111,105,121,191,149v199,66,456,86,456,344v0,199,-150,288,-327,323r0,322r-197,0r0,-322v-125,-18,-197,-80,-247,-167r-119,0r0,-172r251,0r0,11r2,-1v2,120,90,166,222,166v118,0,217,-43,217,-150v0,-108,-113,-124,-203,-149v-205,-57,-441,-85,-436,-346v4,-189,140,-266,313,-294r0,-341r197,0r0,342v110,18,195,74,247,147r101,0r0,172r-209,0r-23,3v-4,-112,-91,-170,-213,-170","w":1210},"{":{"d":"301,-330v-5,-134,-41,-255,-168,-266r0,-127v127,-10,168,-133,168,-267r0,-452v5,-149,72,-252,211,-264r137,0r0,126r-69,0v-87,5,-95,97,-95,199r0,428v-1,152,-59,249,-168,291r0,4v109,41,168,140,168,291r0,418v3,103,8,193,95,199r69,0r0,127v-78,-3,-157,12,-214,-17v-81,-40,-134,-125,-134,-247r0,-443","w":721},"|":{"d":"152,-1726r155,0r0,1996r-155,0r0,-1996","w":455},"}":{"d":"588,-596v-127,10,-168,133,-168,266r0,443v-5,149,-72,252,-211,264r-137,0r0,-127r69,0v87,-5,95,-97,95,-199r0,-418v1,-151,60,-249,167,-291r0,-4v-107,-42,-166,-140,-167,-291r0,-428v-3,-103,-8,-193,-95,-199r-69,0r0,-126v78,3,157,-11,214,18v81,40,134,124,134,246r0,452v5,134,41,256,168,267r0,127","w":721},"~":{"d":"395,-520v-92,0,-128,69,-180,151r-74,-114v55,-98,119,-176,256,-176v138,0,242,76,348,121v138,59,207,-26,269,-130r73,115v-59,118,-164,207,-335,165v-110,-27,-198,-87,-300,-122v-21,-7,-40,-10,-57,-10","w":1229},"\u00a3":{"d":"537,-1294v-168,-9,-205,159,-160,312r51,175r279,0r0,145r-234,0v28,97,73,216,25,326v-28,65,-68,124,-124,164r486,0r0,168r-799,0r0,-168r110,0v102,-59,169,-153,159,-312v-4,-58,-25,-126,-45,-178r-252,0r0,-145r195,0v-47,-119,-96,-300,-37,-440v54,-127,167,-211,344,-211v162,0,265,88,309,212v15,43,21,91,18,142r-166,10v-7,-108,-50,-194,-159,-200","w":932},"\u00a2":{"d":"1044,-412v-61,133,-175,235,-331,267r0,331r-197,0r0,-329v-253,-54,-405,-241,-405,-541v0,-228,102,-383,244,-476v49,-31,103,-53,161,-64r0,-355r197,0r0,356v97,21,177,63,236,127r106,0r0,172r-187,2v-1,0,0,-2,-2,-2v-55,-122,-229,-186,-378,-118v-120,55,-191,182,-191,358v0,175,74,294,191,352v38,18,79,27,122,27v143,-2,231,-76,281,-182","w":1210},"\u00d7":{"d":"525,-676r-373,-448r145,-123r353,422r341,-408r160,115r-373,447r377,450r-151,119r-350,-420r-355,426r-166,-111","w":1303},":":{"d":"227,-774v-78,0,-131,-55,-131,-133v0,-77,54,-129,131,-129v76,0,129,53,129,129v0,78,-52,133,-129,133xm227,12v-79,0,-131,-55,-131,-133v0,-77,54,-129,131,-129v76,0,129,53,129,129v0,78,-51,133,-129,133","w":524},";":{"d":"227,-774v-78,0,-131,-55,-131,-133v0,-77,54,-129,131,-129v76,0,129,53,129,129v0,78,-52,133,-129,133xm164,-283r219,86r-260,537r-143,-53","w":524},"\u02c6":{"d":"217,-1176r250,-313r63,0r252,313r-149,0r-133,-155r-135,155r-148,0","w":860},"\u02dc":{"d":"88,-1251v29,-102,100,-162,225,-164v130,-2,167,104,287,104v46,0,82,-33,90,-80r119,35v-22,133,-163,211,-312,162v-70,-23,-110,-78,-192,-82v-62,-3,-96,25,-108,78","w":1000},"\u00af":{"d":"797,-1229r-758,0r0,-117r758,0r0,117","w":797},"\u02c9":{"d":"797,-1229r-758,0r0,-117r758,0r0,117","w":797},"\u02d8":{"d":"390,-1282v166,59,338,-34,345,-197r121,0v-11,158,-104,256,-228,305v-142,56,-321,6,-398,-69v-58,-56,-106,-133,-111,-236r121,0v6,103,69,168,150,197","w":1008},"\u00b8":{"d":"182,303v150,-7,235,-95,262,-225r150,45v-50,183,-178,301,-401,309","w":940},"\u02dd":{"d":"1174,-1860r-246,375r-99,-45r238,-377xm852,-1860r-242,375r-98,-45r233,-377","w":1341},"\u02db":{"d":"233,205v0,92,149,71,205,45r49,166v-45,21,-112,41,-178,41v-155,0,-280,-56,-280,-207v0,-190,150,-270,287,-333v24,-11,48,-18,67,-23r86,77v-97,45,-183,82,-224,170v-9,19,-12,41,-12,64","w":539},"\u02c7":{"d":"776,-1488r-252,353r-49,0r-252,-353r144,0r133,196r135,-196r141,0","w":860},"\u00b0":{"d":"121,-1405v-79,-208,109,-390,311,-313v104,39,184,177,129,313v-41,103,-178,182,-313,127v-58,-24,-105,-69,-127,-127xm340,-1634v-81,0,-135,56,-135,137v0,81,54,135,135,135v81,0,137,-54,137,-135v0,-81,-56,-137,-137,-137","w":682},"`":{"d":"387,-1178r-287,-282r0,-17r248,0r184,299r-145,0","w":590},"\u00b4":{"d":"297,-1477r240,0r0,17r-299,282r-154,0","w":645},"\u00a8":{"d":"168,-1227v-78,0,-129,-55,-129,-133v0,-76,53,-129,129,-129v75,0,125,53,125,129v0,77,-49,133,-125,133xm627,-1227v-78,0,-129,-55,-129,-133v0,-76,53,-129,129,-129v74,0,125,53,125,129v0,77,-49,133,-125,133","w":612},"\u02da":{"d":"610,-1317v-62,0,-104,44,-104,105v0,61,43,104,104,104v62,0,105,-42,105,-104v0,-62,-43,-105,-105,-105xm374,-1311v46,-112,184,-195,335,-137v112,43,195,189,137,334v-44,111,-189,196,-334,138v-111,-44,-197,-189,-138,-335","w":1200},"\u02d9":{"d":"305,-1270v-79,0,-131,-55,-131,-133v0,-77,53,-129,131,-129v76,0,129,53,129,129v0,78,-51,133,-129,133","w":612},"\u0131":{"d":"59,-1036r338,0r0,864r156,0r0,172r-492,0r0,-172r148,0r0,-692r-150,0r0,-172","w":612},"\u00c6":{"d":"-2,-172r106,0r816,-1344r938,0r0,429r-205,0r0,-256r-465,0r0,481r379,0r0,172r-379,0r0,518r465,0r0,-256r205,0r0,428r-992,0r0,-172r125,0r0,-254r-517,0r-148,254r163,0r0,172r-491,0r0,-172xm991,-598r0,-714r-416,714r416,0","w":1915},"\u00e6":{"d":"51,-274v0,-242,190,-332,430,-332v88,0,159,7,212,21v5,-107,1,-207,-59,-257v-109,-92,-357,-45,-456,23r-61,-129v97,-61,219,-111,372,-111v157,0,270,48,332,146v80,-89,193,-150,357,-150v336,2,442,234,442,569r-746,0v7,152,31,232,144,300v154,92,370,41,502,-42r75,127v-119,81,-242,138,-419,138v-172,0,-297,-66,-376,-171v-96,127,-326,217,-534,147v-120,-40,-215,-128,-215,-279xm231,-295v-8,185,243,197,379,131v50,-24,91,-56,125,-96v-25,-63,-40,-135,-44,-217r-216,0v-136,3,-238,50,-244,182xm1421,-639v-11,-163,-80,-269,-256,-268v-182,0,-256,110,-281,268r537,0","w":1784},"\u00fe":{"d":"849,-24v-144,65,-364,45,-464,-41r0,364r162,0r0,172r-492,0r0,-172r144,0r0,-1704r-142,0r0,-172r328,0r0,627v110,-96,326,-151,492,-73v169,79,276,242,276,486v0,260,-121,430,-304,513xm385,-229v65,72,248,114,373,60v127,-55,203,-178,203,-361v0,-174,-75,-289,-196,-342v-138,-61,-306,0,-380,86r0,557","w":1243},"\u00de":{"d":"106,-1516r492,0r0,173r-158,0r0,134v177,6,372,-17,514,27v165,52,281,171,281,383v0,198,-124,314,-278,372v-137,53,-337,26,-517,32r0,223r156,0r0,172r-492,0r0,-172r140,0r0,-1171r-138,0r0,-173xm768,-559v159,-4,256,-80,260,-240v2,-118,-52,-181,-130,-213v-108,-44,-309,-18,-458,-24r0,477r328,0","w":1323},"\u00b9":{"d":"92,-952r82,0r0,-445r-141,76r0,-139r217,-119r59,0r0,627r80,0r0,112r-297,0r0,-112","w":500},"\u00b2":{"d":"299,-1579v145,0,246,74,246,217v0,70,-36,120,-80,164r-235,235r313,0r0,121r-488,0r0,-102r275,-277v33,-37,82,-80,82,-141v0,-63,-50,-94,-115,-96v-69,-2,-117,44,-119,108r-125,0v6,-146,101,-229,246,-229","w":700},"\u00b3":{"d":"438,-1055v0,-90,-86,-114,-186,-106r0,-107v93,7,176,-13,176,-96v0,-62,-54,-98,-121,-98v-62,0,-111,34,-114,98r-132,0v10,-163,176,-259,347,-200v83,29,151,90,151,194v0,74,-38,124,-92,152v80,29,130,150,82,250v-49,102,-192,168,-336,122v-89,-28,-159,-91,-162,-205r133,0v10,63,57,101,129,99v70,-2,125,-35,125,-103","w":631},"\u00ba":{"d":"202,-958v-82,-75,-133,-260,-73,-404v54,-128,162,-218,338,-218v175,0,285,88,337,215v36,86,35,205,1,291v-52,129,-162,217,-338,217v-115,0,-203,-44,-265,-101xm467,-1445v-136,0,-213,88,-213,228v0,137,79,227,213,227v135,0,213,-89,213,-227v0,-141,-76,-228,-213,-228","w":934},"\u00aa":{"d":"102,-1072v0,-207,250,-240,449,-203v13,-122,-44,-178,-154,-178v-82,0,-154,19,-204,47r-50,-96v69,-42,168,-78,273,-78v174,1,280,74,280,250r0,313r82,0r0,131r-227,0r0,-56v-53,42,-110,75,-201,75v-141,0,-248,-70,-248,-205xm244,-1084v-3,70,57,100,131,100v71,0,141,-32,176,-67r0,-136v-133,3,-302,-24,-307,103","w":838},"\u00a4":{"d":"219,-471v-55,-70,-94,-157,-94,-272v0,-115,42,-209,96,-278r-147,-177r145,-123r149,179v105,-64,302,-64,408,-1r137,-164r160,115r-145,174v55,69,94,160,94,275v0,113,-39,203,-92,272r147,176r-151,119r-143,-171v-108,66,-308,68,-417,2r-145,175r-166,-111xm466,-1006v-124,49,-211,203,-149,368v46,123,207,211,367,149v123,-48,212,-208,150,-368v-47,-123,-208,-212,-368,-149","w":1128},"\u00ac":{"d":"1143,-999r0,567r-182,0r0,-383r-912,0r0,-184r1094,0","w":1214},"\u00b5":{"d":"567,-150v97,0,189,-39,256,-83r0,-803r195,0r0,864r115,0r0,172r-302,0r0,-96v-105,90,-309,150,-477,89r0,478r-196,0r0,-1507r196,0r0,645v-1,151,69,241,213,241","w":1198},"\u03bc":{"d":"567,-150v97,0,189,-39,256,-83r0,-803r195,0r0,864r115,0r0,172r-302,0r0,-96v-105,90,-309,150,-477,89r0,478r-196,0r0,-1507r196,0r0,645v-1,151,69,241,213,241","w":1198},"\u00b7":{"d":"305,-532v-79,0,-131,-55,-131,-134v0,-77,53,-129,131,-129v76,0,129,53,129,129v0,78,-52,134,-129,134","w":612},"\u2219":{"d":"305,-532v-79,0,-131,-55,-131,-134v0,-77,53,-129,131,-129v76,0,129,53,129,129v0,78,-52,134,-129,134","w":612},"\u00a1":{"d":"342,-877v-79,0,-131,-55,-131,-133v0,-77,53,-129,131,-129v76,0,129,53,129,129v0,78,-51,133,-129,133xm252,-696r178,0r41,1167r-260,0","w":682},"\u00bf":{"d":"537,-889v-79,0,-131,-55,-131,-133v0,-77,53,-129,131,-129v76,0,129,53,129,129v0,78,-51,133,-129,133xm623,-780v1,187,-17,326,-95,430v-67,90,-187,167,-266,242v-55,51,-86,155,-47,244v35,79,101,147,209,147v172,0,267,-99,283,-254r176,12v-18,191,-128,318,-279,381v-104,44,-256,44,-358,0v-139,-60,-238,-179,-238,-367v0,-209,156,-314,289,-407v116,-82,150,-224,145,-428r181,0","w":1030},"^":{"d":"672,-1513r403,790r-143,0r-315,-626r-320,626r-141,0r403,-790r113,0","w":1229},"\u00a6":{"d":"152,-1729r155,0r0,750r-155,0r0,-750xm152,-481r155,0r0,749r-155,0r0,-749","w":512},"\u2044":{"d":"1233,-1577r199,0r-1276,1638r-199,0","w":1400},"\u00bc":{"d":"1276,-1577r199,0r-1276,1638r-199,0xm1080,-303r280,-457r148,0r-273,455r183,0r0,-164r135,0r0,164r112,0r0,110r-112,0r0,195r-135,0r0,-195r-336,0xm64,-907r84,0r0,-404r-129,72r0,-162r217,-121r70,0r0,615r81,0r0,129r-323,0r0,-129","w":1700},"\u00bd":{"d":"1276,-1577r199,0r-1276,1638r-199,0xm1293,-752v147,0,252,75,252,222v0,69,-34,112,-74,153r-229,236r301,0r0,141r-504,0r0,-121r274,-276v36,-34,76,-73,76,-129v0,-50,-44,-86,-100,-86v-63,0,-107,41,-107,100r-145,0v5,-154,102,-240,256,-240xm76,-907r84,0r0,-404r-129,72r0,-162r217,-121r70,0r0,615r82,0r0,129r-324,0r0,-129","w":1700},"\u00be":{"d":"1337,-1577r199,0r-1276,1638r-199,0xm383,-1008v0,-85,-85,-107,-182,-98r0,-113v57,0,116,4,145,-25v60,-60,8,-162,-82,-155v-57,4,-100,32,-102,92r-150,0v5,-175,180,-268,356,-209v85,29,156,93,156,199v0,72,-34,124,-84,152v78,32,119,152,74,250v-49,108,-201,179,-350,129v-91,-31,-161,-97,-164,-215r151,0v9,59,51,98,119,96v66,-2,113,-39,113,-103xm975,-303r280,-457r148,0r-273,455r183,0r0,-164r135,0r0,164r112,0r0,110r-112,0r0,195r-135,0r0,-195r-336,0","w":1700},"\u00d8":{"d":"1004,3v-228,69,-489,4,-627,-112r-111,143r-199,0r196,-252v-147,-162,-234,-461,-163,-750v68,-276,237,-470,501,-550v213,-65,464,-10,602,93r140,-179r199,0r-220,282v159,162,259,470,184,774v-68,276,-238,471,-502,551xm498,-264v111,106,357,143,520,58v183,-96,305,-283,305,-552v0,-163,-52,-303,-127,-401xm1083,-1271v-113,-92,-343,-120,-495,-40v-183,97,-307,285,-307,553v0,153,44,281,110,377","w":1593},"\u00f8":{"d":"822,-8v-150,64,-374,45,-491,-34r-80,103r-199,0r161,-206v-115,-124,-158,-398,-83,-596v72,-190,225,-326,478,-326v111,0,199,27,272,70r133,-170r198,0r-211,270v76,91,126,216,126,377v0,261,-117,432,-304,512xm441,-182v70,53,200,65,295,24v151,-66,230,-269,184,-486v-9,-38,-21,-72,-38,-102xm774,-862v-71,-49,-198,-58,-290,-20v-152,63,-232,267,-186,482v8,37,21,69,37,99","w":1219},"\u00d0":{"d":"127,-676r0,-172r168,0r0,-495r-156,0r0,-173r576,0v318,8,510,165,633,373v86,144,126,380,71,584v-72,267,-245,454,-506,532v-62,19,-129,27,-198,27r-576,0r0,-172r156,0r0,-504r-168,0xm492,-1343r0,495r186,0r0,172r-186,0r0,504v164,-4,316,16,432,-46v180,-96,311,-277,311,-544v0,-263,-132,-443,-311,-536v-117,-61,-268,-41,-432,-45","w":1516},"\u00f0":{"d":"666,-1526r89,162r170,-55r53,164r-138,45r194,352v56,108,117,210,117,354v0,248,-145,397,-327,471v-206,84,-459,10,-571,-103v-90,-90,-162,-217,-159,-393v3,-226,133,-367,299,-436v116,-48,260,-50,377,-1r-112,-186r-149,48r-52,-164r109,-35r-134,-223r234,0xm623,-170v211,0,342,-120,342,-332v0,-160,-82,-268,-199,-311v-191,-71,-392,25,-455,167v-36,79,-41,198,-3,279v52,114,157,197,315,197","w":1270},"\u00e4":{"d":"508,-1059v250,0,388,118,388,369r-1,518r115,0r0,172r-301,0r0,-96v-74,66,-160,125,-293,125v-160,0,-267,-76,-320,-186v-53,-108,-13,-259,46,-323v79,-84,200,-130,358,-132v86,0,145,5,210,17r1,-85v-1,-143,-79,-215,-221,-215v-119,0,-220,30,-293,76r-61,-129v97,-61,219,-111,372,-111xm250,-291v-7,171,220,195,351,131v41,-19,81,-48,108,-79r1,-234r-216,0v-136,3,-238,50,-244,182xm250,-1227v-78,0,-129,-55,-129,-133v0,-76,53,-129,129,-129v75,0,125,53,125,129v0,77,-49,133,-125,133xm709,-1227v-78,0,-129,-55,-129,-133v0,-76,53,-129,129,-129v74,0,125,53,125,129v0,77,-49,133,-125,133","w":1120},"\u010d":{"d":"397,-1028v184,-84,430,-28,534,96r105,0r0,172r-188,0v-55,-122,-229,-187,-378,-118v-120,55,-191,182,-191,358v0,175,74,294,191,352v38,18,79,27,122,27v144,-2,230,-76,280,-183r154,76v-78,158,-209,277,-436,277v-245,0,-391,-142,-461,-328v-49,-132,-49,-311,2,-442v51,-131,143,-230,266,-287xm841,-1488r-252,353r-49,0r-252,-353r144,0r133,196r135,-196r141,0","w":1118},"\u00f5":{"d":"125,-295v-51,-131,-51,-317,1,-447v74,-189,226,-324,480,-324v253,0,408,132,480,322v50,131,51,314,0,446v-73,191,-225,329,-480,329v-256,0,-407,-136,-481,-326xm932,-518v0,-230,-104,-388,-326,-388v-217,0,-323,161,-323,388v0,179,78,303,199,362v77,37,175,35,252,0v123,-58,198,-182,198,-362xm245,-1251v29,-102,100,-162,225,-164v130,-2,167,104,287,104v46,0,82,-33,90,-80r119,35v-22,133,-163,211,-312,162v-70,-23,-110,-78,-192,-82v-62,-3,-96,25,-108,78","w":1225},"\u00f6":{"d":"125,-295v-51,-131,-51,-317,1,-447v74,-189,226,-324,480,-324v253,0,408,132,480,322v50,131,51,314,0,446v-73,191,-225,329,-480,329v-256,0,-407,-136,-481,-326xm932,-518v0,-230,-104,-388,-326,-388v-217,0,-323,161,-323,388v0,179,78,303,199,362v77,37,175,35,252,0v123,-58,198,-182,198,-362xm378,-1227v-78,0,-129,-55,-129,-133v0,-76,53,-129,129,-129v75,0,125,53,125,129v0,77,-49,133,-125,133xm837,-1227v-78,0,-129,-55,-129,-133v0,-76,53,-129,129,-129v74,0,125,53,125,129v0,77,-49,133,-125,133","w":1225},"\u00fc":{"d":"607,-150v97,0,189,-39,256,-83r0,-631r-139,0r0,-172r334,0r0,864r115,0r0,172r-302,0r0,-96v-85,65,-189,114,-329,114v-237,0,-341,-144,-342,-387r0,-495r-140,0r0,-172r334,0r0,645v-1,151,69,241,213,241xm389,-1227v-78,0,-129,-55,-129,-133v0,-76,53,-129,129,-129v75,0,125,53,125,129v0,77,-49,133,-125,133xm848,-1227v-78,0,-129,-55,-129,-133v0,-76,53,-129,129,-129v74,0,125,53,125,129v0,77,-49,133,-125,133","w":1350},"\u0161":{"d":"698,-758v-4,-113,-101,-155,-213,-155v-100,0,-182,36,-182,131v0,90,56,108,137,139v194,74,451,111,445,364v-5,214,-165,305,-385,310v-155,3,-255,-53,-314,-142r-104,0r0,-172r207,0v4,117,98,160,215,160v105,0,198,-40,198,-141v0,-90,-61,-114,-143,-148v-183,-76,-436,-105,-436,-350v0,-206,149,-305,362,-305v161,0,244,42,321,137r97,0r0,172r-205,0xm770,-1488r-252,353r-49,0r-252,-353r144,0r133,196r135,-196r141,0","w":993},"\u017e":{"d":"76,-115r525,-766r-331,0r0,146r-184,0r0,-301r741,0r0,118r-524,762r354,0r0,-176r193,0r0,332r-774,0r0,-115xm741,-1488r-252,353r-49,0r-252,-353r144,0r133,196r135,-196r141,0","w":924},"\u00c4":{"d":"1040,-172r126,0r-120,-344r-583,0r-117,344r156,0r0,172r-492,0r0,-172r132,0r472,-1344r295,0r471,1344r152,0r0,172r-492,0r0,-172xm520,-682r468,0r-236,-678xm544,-1707v-78,0,-129,-55,-129,-133v0,-76,53,-129,129,-129v75,0,125,53,125,129v0,77,-49,133,-125,133xm1003,-1707v-78,0,-129,-55,-129,-133v0,-76,53,-129,129,-129v74,0,125,53,125,129v0,77,-49,133,-125,133"},"\u010c":{"d":"795,-1546v259,0,417,114,533,252r106,0r0,178r-215,0v-79,-137,-224,-244,-424,-244v-262,0,-409,171,-483,372v-54,146,-49,342,4,480v54,144,143,234,270,302v62,32,132,49,209,49v255,0,380,-127,475,-328r176,83v-93,237,-318,432,-649,432v-231,0,-392,-99,-517,-225v-179,-181,-270,-564,-154,-871v72,-190,202,-336,380,-418v89,-41,185,-62,289,-62xm1036,-1968r-252,353r-49,0r-252,-353r144,0r133,196r135,-196r141,0","w":1509},"\u00d6":{"d":"1092,-32v-170,81,-408,83,-580,4v-255,-116,-440,-368,-440,-730v0,-362,179,-606,434,-726v174,-82,414,-82,588,0v256,120,432,363,432,726v0,362,-180,606,-434,726xm586,-205v122,65,305,64,428,0v184,-96,307,-284,307,-553v0,-271,-130,-471,-322,-558v-130,-59,-293,-57,-416,5v-185,94,-307,284,-307,553v0,282,123,454,310,553xm572,-1707v-78,0,-129,-55,-129,-133v0,-76,53,-129,129,-129v75,0,125,53,125,129v0,77,-49,133,-125,133xm1031,-1707v-78,0,-129,-55,-129,-133v0,-76,53,-129,129,-129v74,0,125,53,125,129v0,77,-49,133,-125,133","w":1597},"\u00d5":{"d":"1092,-32v-170,81,-408,83,-580,4v-255,-116,-440,-368,-440,-730v0,-362,179,-606,434,-726v174,-82,414,-82,588,0v256,120,432,363,432,726v0,362,-180,606,-434,726xm586,-205v122,65,305,64,428,0v184,-96,307,-284,307,-553v0,-271,-130,-471,-322,-558v-130,-59,-293,-57,-416,5v-185,94,-307,284,-307,553v0,282,123,454,310,553xm439,-1731v29,-102,100,-162,225,-164v130,-2,167,104,287,104v46,0,82,-33,90,-80r119,35v-22,133,-163,211,-312,162v-70,-23,-110,-78,-192,-82v-62,-3,-96,25,-108,78","w":1597},"\u00dc":{"d":"829,-166v285,0,390,-176,390,-471r0,-706r-164,0r0,-173r491,0r0,173r-135,0r0,684v-2,322,-132,538,-356,635v-138,59,-317,60,-455,0v-217,-95,-348,-305,-348,-617r0,-702r-139,0r0,-173r491,0r0,173r-155,0r0,706v2,285,107,471,380,471xm602,-1707v-78,0,-129,-55,-129,-133v0,-76,53,-129,129,-129v75,0,125,53,125,129v0,77,-49,133,-125,133xm1061,-1707v-78,0,-129,-55,-129,-133v0,-76,53,-129,129,-129v74,0,125,53,125,129v0,77,-49,133,-125,133","w":1550},"\u0160":{"d":"647,-1538v229,2,364,109,443,262r75,0r0,172r-245,0v1,-148,-78,-209,-187,-236v-188,-47,-391,23,-395,207v-3,164,124,197,246,238v265,89,579,136,575,489v-3,220,-140,344,-311,406v-64,22,-133,33,-209,33v-270,2,-420,-117,-483,-316r-76,0r0,-172r252,0v-5,184,62,238,189,279v38,12,81,16,128,16v171,-3,295,-69,295,-235v0,-167,-141,-220,-270,-258v-263,-77,-547,-128,-541,-467v4,-210,129,-328,295,-386v64,-22,137,-32,219,-32xm899,-1968r-252,353r-49,0r-252,-353r144,0r133,196r135,-196r141,0","w":1210},"\u017d":{"d":"1163,-1292r-913,1120r711,0r0,-252r196,0r0,424r-1106,0r0,-227r900,-1116r-687,0r0,256r-196,0r0,-429r1095,0r0,224xm884,-1968r-252,353r-49,0r-252,-353r144,0r133,196r135,-196r141,0","w":1214},"\u00c0":{"d":"1040,-172r126,0r-120,-344r-583,0r-117,344r156,0r0,172r-492,0r0,-172r132,0r472,-1344r295,0r471,1344r152,0r0,172r-492,0r0,-172xm520,-682r468,0r-236,-678xm758,-1658r-287,-282r0,-17r248,0r184,299r-145,0"},"\u00c1":{"d":"1040,-172r126,0r-120,-344r-583,0r-117,344r156,0r0,172r-492,0r0,-172r132,0r472,-1344r295,0r471,1344r152,0r0,172r-492,0r0,-172xm520,-682r468,0r-236,-678xm758,-1957r240,0r0,17r-299,282r-154,0"},"\u00c2":{"d":"1040,-172r126,0r-120,-344r-583,0r-117,344r156,0r0,172r-492,0r0,-172r132,0r472,-1344r295,0r471,1344r152,0r0,172r-492,0r0,-172xm520,-682r468,0r-236,-678xm489,-1646r250,-313r63,0r252,313r-149,0r-133,-155r-135,155r-148,0"},"\u00c3":{"d":"1040,-172r126,0r-120,-344r-583,0r-117,344r156,0r0,172r-492,0r0,-172r132,0r472,-1344r295,0r471,1344r152,0r0,172r-492,0r0,-172xm520,-682r468,0r-236,-678xm411,-1731v29,-102,100,-162,225,-164v130,-2,167,104,287,104v46,0,82,-33,90,-80r119,35v-22,133,-163,211,-312,162v-70,-23,-110,-78,-192,-82v-62,-3,-96,25,-108,78"},"\u00c5":{"d":"1040,-172r126,0r-120,-344r-583,0r-117,344r156,0r0,172r-492,0r0,-172r132,0r472,-1344r295,0r471,1344r152,0r0,172r-492,0r0,-172xm520,-682r468,0r-236,-678xm771,-1797v-62,0,-104,44,-104,105v0,61,43,104,104,104v62,0,105,-42,105,-104v0,-62,-43,-105,-105,-105xm535,-1791v46,-112,184,-195,335,-137v112,43,195,189,137,334v-44,111,-189,196,-334,138v-111,-44,-197,-189,-138,-335"},"\u00c7":{"d":"795,-1546v259,0,417,114,533,252r106,0r0,178r-215,0v-79,-137,-224,-244,-424,-244v-262,0,-409,171,-483,372v-54,146,-49,342,4,480v54,144,143,234,270,302v62,32,132,49,209,49v255,0,380,-127,475,-328r176,83v-93,237,-318,432,-649,432v-231,0,-392,-99,-517,-225v-179,-181,-270,-564,-154,-871v72,-190,202,-336,380,-418v89,-41,185,-62,289,-62xm544,303v150,-7,235,-95,262,-225r150,45v-50,183,-178,301,-401,309","w":1509},"\u00c8":{"d":"143,-1516r1086,0r0,429r-205,0r0,-256r-541,0r0,485r455,0r0,172r-455,0r0,514r541,0r0,-256r205,0r0,428r-1086,0r0,-172r144,0r0,-1171r-144,0r0,-173xm627,-1658r-287,-282r0,-17r248,0r184,299r-145,0","w":1286},"\u00c9":{"d":"143,-1516r1086,0r0,429r-205,0r0,-256r-541,0r0,485r455,0r0,172r-455,0r0,514r541,0r0,-256r205,0r0,428r-1086,0r0,-172r144,0r0,-1171r-144,0r0,-173xm673,-1957r240,0r0,17r-299,282r-154,0","w":1286},"\u00ca":{"d":"143,-1516r1086,0r0,429r-205,0r0,-256r-541,0r0,485r455,0r0,172r-455,0r0,514r541,0r0,-256r205,0r0,428r-1086,0r0,-172r144,0r0,-1171r-144,0r0,-173xm417,-1656r250,-313r63,0r252,313r-149,0r-133,-155r-135,155r-148,0","w":1286},"\u00cb":{"d":"143,-1516r1086,0r0,429r-205,0r0,-256r-541,0r0,485r455,0r0,172r-455,0r0,514r541,0r0,-256r205,0r0,428r-1086,0r0,-172r144,0r0,-1171r-144,0r0,-173xm418,-1707v-78,0,-129,-55,-129,-133v0,-76,53,-129,129,-129v75,0,125,53,125,129v0,77,-49,133,-125,133xm877,-1707v-78,0,-129,-55,-129,-133v0,-76,53,-129,129,-129v74,0,125,53,125,129v0,77,-49,133,-125,133","w":1286},"\u00cc":{"d":"143,-1516r484,0r0,173r-144,0r0,1171r144,0r0,172r-484,0r0,-172r144,0r0,-1171r-144,0r0,-173xm373,-1658r-287,-282r0,-17r248,0r184,299r-145,0","w":770},"\u00cd":{"d":"143,-1516r484,0r0,173r-144,0r0,1171r144,0r0,172r-484,0r0,-172r144,0r0,-1171r-144,0r0,-173xm372,-1957r240,0r0,17r-299,282r-154,0","w":770},"\u00ce":{"d":"143,-1516r484,0r0,173r-144,0r0,1171r144,0r0,172r-484,0r0,-172r144,0r0,-1171r-144,0r0,-173xm104,-1656r250,-313r63,0r252,313r-149,0r-133,-155r-135,155r-148,0","w":770},"\u00cf":{"d":"143,-1516r484,0r0,173r-144,0r0,1171r144,0r0,172r-484,0r0,-172r144,0r0,-1171r-144,0r0,-173xm159,-1707v-78,0,-129,-55,-129,-133v0,-76,53,-129,129,-129v75,0,125,53,125,129v0,77,-49,133,-125,133xm618,-1707v-78,0,-129,-55,-129,-133v0,-76,53,-129,129,-129v74,0,125,53,125,129v0,77,-49,133,-125,133","w":770},"\u00d2":{"d":"1092,-32v-170,81,-408,83,-580,4v-255,-116,-440,-368,-440,-730v0,-362,179,-606,434,-726v174,-82,414,-82,588,0v256,120,432,363,432,726v0,362,-180,606,-434,726xm586,-205v122,65,305,64,428,0v184,-96,307,-284,307,-553v0,-271,-130,-471,-322,-558v-130,-59,-293,-57,-416,5v-185,94,-307,284,-307,553v0,282,123,454,310,553xm786,-1658r-287,-282r0,-17r248,0r184,299r-145,0","w":1597},"\u00d1":{"d":"1081,-1516r492,0r0,173r-129,0r0,1343r-256,0r-705,-1257r0,1085r156,0r0,172r-492,0r0,-172r140,0r0,-1171r-144,0r0,-175r408,0r692,1245r8,-48r0,-1022r-170,0r0,-173xm498,-1731v29,-102,100,-162,225,-164v130,-2,167,104,287,104v46,0,82,-33,90,-80r119,35v-22,133,-163,211,-312,162v-70,-23,-110,-78,-192,-82v-62,-3,-96,25,-108,78","w":1624},"\u00d3":{"d":"1092,-32v-170,81,-408,83,-580,4v-255,-116,-440,-368,-440,-730v0,-362,179,-606,434,-726v174,-82,414,-82,588,0v256,120,432,363,432,726v0,362,-180,606,-434,726xm586,-205v122,65,305,64,428,0v184,-96,307,-284,307,-553v0,-271,-130,-471,-322,-558v-130,-59,-293,-57,-416,5v-185,94,-307,284,-307,553v0,282,123,454,310,553xm786,-1957r240,0r0,17r-299,282r-154,0","w":1597},"\u00d4":{"d":"1092,-32v-170,81,-408,83,-580,4v-255,-116,-440,-368,-440,-730v0,-362,179,-606,434,-726v174,-82,414,-82,588,0v256,120,432,363,432,726v0,362,-180,606,-434,726xm586,-205v122,65,305,64,428,0v184,-96,307,-284,307,-553v0,-271,-130,-471,-322,-558v-130,-59,-293,-57,-416,5v-185,94,-307,284,-307,553v0,282,123,454,310,553xm517,-1656r250,-313r63,0r252,313r-149,0r-133,-155r-135,155r-148,0","w":1597},"\u00d9":{"d":"829,-166v285,0,390,-176,390,-471r0,-706r-164,0r0,-173r491,0r0,173r-135,0r0,684v-2,322,-132,538,-356,635v-138,59,-317,60,-455,0v-217,-95,-348,-305,-348,-617r0,-702r-139,0r0,-173r491,0r0,173r-155,0r0,706v2,285,107,471,380,471xm816,-1658r-287,-282r0,-17r248,0r184,299r-145,0","w":1550},"\u00da":{"d":"829,-166v285,0,390,-176,390,-471r0,-706r-164,0r0,-173r491,0r0,173r-135,0r0,684v-2,322,-132,538,-356,635v-138,59,-317,60,-455,0v-217,-95,-348,-305,-348,-617r0,-702r-139,0r0,-173r491,0r0,173r-155,0r0,706v2,285,107,471,380,471xm816,-1957r240,0r0,17r-299,282r-154,0","w":1550},"\u00db":{"d":"829,-166v285,0,390,-176,390,-471r0,-706r-164,0r0,-173r491,0r0,173r-135,0r0,684v-2,322,-132,538,-356,635v-138,59,-317,60,-455,0v-217,-95,-348,-305,-348,-617r0,-702r-139,0r0,-173r491,0r0,173r-155,0r0,706v2,285,107,471,380,471xm547,-1656r250,-313r63,0r252,313r-149,0r-133,-155r-135,155r-148,0","w":1550},"\u00dd":{"d":"51,-1516r492,0r0,173r-144,0r285,487r305,-487r-158,0r0,-173r492,0r0,173r-129,0r-426,646r0,525r156,0r0,172r-492,0r0,-172r139,0r0,-530r-402,-641r-118,0r0,-173xm674,-1957r240,0r0,17r-299,282r-154,0","w":1354},"\u00e0":{"d":"508,-1059v250,0,388,118,388,369r-1,518r115,0r0,172r-301,0r0,-96v-74,66,-160,125,-293,125v-160,0,-267,-76,-320,-186v-53,-108,-13,-259,46,-323v79,-84,200,-130,358,-132v86,0,145,5,210,17r1,-85v-1,-143,-79,-215,-221,-215v-119,0,-220,30,-293,76r-61,-129v97,-61,219,-111,372,-111xm250,-291v-7,171,220,195,351,131v41,-19,81,-48,108,-79r1,-234r-216,0v-136,3,-238,50,-244,182xm508,-1178r-287,-282r0,-17r248,0r184,299r-145,0","w":1120},"\u00e1":{"d":"508,-1059v250,0,388,118,388,369r-1,518r115,0r0,172r-301,0r0,-96v-74,66,-160,125,-293,125v-160,0,-267,-76,-320,-186v-53,-108,-13,-259,46,-323v79,-84,200,-130,358,-132v86,0,145,5,210,17r1,-85v-1,-143,-79,-215,-221,-215v-119,0,-220,30,-293,76r-61,-129v97,-61,219,-111,372,-111xm250,-291v-7,171,220,195,351,131v41,-19,81,-48,108,-79r1,-234r-216,0v-136,3,-238,50,-244,182xm508,-1477r240,0r0,17r-299,282r-154,0","w":1120},"\u00e2":{"d":"508,-1059v250,0,388,118,388,369r-1,518r115,0r0,172r-301,0r0,-96v-74,66,-160,125,-293,125v-160,0,-267,-76,-320,-186v-53,-108,-13,-259,46,-323v79,-84,200,-130,358,-132v86,0,145,5,210,17r1,-85v-1,-143,-79,-215,-221,-215v-119,0,-220,30,-293,76r-61,-129v97,-61,219,-111,372,-111xm250,-291v-7,171,220,195,351,131v41,-19,81,-48,108,-79r1,-234r-216,0v-136,3,-238,50,-244,182xm239,-1176r250,-313r63,0r252,313r-149,0r-133,-155r-135,155r-148,0","w":1120},"\u00e3":{"d":"508,-1059v250,0,388,118,388,369r-1,518r115,0r0,172r-301,0r0,-96v-74,66,-160,125,-293,125v-160,0,-267,-76,-320,-186v-53,-108,-13,-259,46,-323v79,-84,200,-130,358,-132v86,0,145,5,210,17r1,-85v-1,-143,-79,-215,-221,-215v-119,0,-220,30,-293,76r-61,-129v97,-61,219,-111,372,-111xm250,-291v-7,171,220,195,351,131v41,-19,81,-48,108,-79r1,-234r-216,0v-136,3,-238,50,-244,182xm161,-1251v29,-102,100,-162,225,-164v130,-2,167,104,287,104v46,0,82,-33,90,-80r119,35v-22,133,-163,211,-312,162v-70,-23,-110,-78,-192,-82v-62,-3,-96,25,-108,78","w":1120},"\u00e5":{"d":"508,-1059v250,0,388,118,388,369r-1,518r115,0r0,172r-301,0r0,-96v-74,66,-160,125,-293,125v-160,0,-267,-76,-320,-186v-53,-108,-13,-259,46,-323v79,-84,200,-130,358,-132v86,0,145,5,210,17r1,-85v-1,-143,-79,-215,-221,-215v-119,0,-220,30,-293,76r-61,-129v97,-61,219,-111,372,-111xm250,-291v-7,171,220,195,351,131v41,-19,81,-48,108,-79r1,-234r-216,0v-136,3,-238,50,-244,182xm522,-1538v-62,0,-104,44,-104,105v0,61,43,104,104,104v62,0,105,-42,105,-104v0,-62,-43,-105,-105,-105xm286,-1532v46,-112,184,-195,335,-137v112,43,195,189,137,334v-44,111,-189,196,-334,138v-111,-44,-197,-189,-138,-335","w":1120},"\u00e7":{"d":"397,-1028v184,-84,430,-28,534,96r105,0r0,172r-188,0v-55,-122,-229,-187,-378,-118v-120,55,-191,182,-191,358v0,175,74,294,191,352v38,18,79,27,122,27v144,-2,230,-76,280,-183r154,76v-78,158,-209,277,-436,277v-245,0,-391,-142,-461,-328v-49,-132,-49,-311,2,-442v51,-131,143,-230,266,-287xm358,303v150,-7,235,-95,262,-225r150,45v-50,183,-178,301,-401,309","w":1118},"\u00e8":{"d":"997,-109v-150,112,-395,187,-613,103v-189,-73,-292,-251,-292,-516v0,-246,105,-415,276,-498v108,-52,299,-57,408,-8v182,81,247,274,246,534r-746,0v1,218,123,351,328,351v132,0,221,-38,318,-93xm823,-639v-11,-163,-80,-269,-256,-268v-182,0,-256,110,-281,268r537,0xm544,-1178r-287,-282r0,-17r248,0r184,299r-145,0","w":1175},"\u00e9":{"d":"997,-109v-150,112,-395,187,-613,103v-189,-73,-292,-251,-292,-516v0,-246,105,-415,276,-498v108,-52,299,-57,408,-8v182,81,247,274,246,534r-746,0v1,218,123,351,328,351v132,0,221,-38,318,-93xm823,-639v-11,-163,-80,-269,-256,-268v-182,0,-256,110,-281,268r537,0xm544,-1477r240,0r0,17r-299,282r-154,0","w":1175},"\u00ea":{"d":"997,-109v-150,112,-395,187,-613,103v-189,-73,-292,-251,-292,-516v0,-246,105,-415,276,-498v108,-52,299,-57,408,-8v182,81,247,274,246,534r-746,0v1,218,123,351,328,351v132,0,221,-38,318,-93xm823,-639v-11,-163,-80,-269,-256,-268v-182,0,-256,110,-281,268r537,0xm287,-1176r250,-313r63,0r252,313r-149,0r-133,-155r-135,155r-148,0","w":1175},"\u00eb":{"d":"997,-109v-150,112,-395,187,-613,103v-189,-73,-292,-251,-292,-516v0,-246,105,-415,276,-498v108,-52,299,-57,408,-8v182,81,247,274,246,534r-746,0v1,218,123,351,328,351v132,0,221,-38,318,-93xm823,-639v-11,-163,-80,-269,-256,-268v-182,0,-256,110,-281,268r537,0xm330,-1227v-78,0,-129,-55,-129,-133v0,-76,53,-129,129,-129v75,0,125,53,125,129v0,77,-49,133,-125,133xm789,-1227v-78,0,-129,-55,-129,-133v0,-76,53,-129,129,-129v74,0,125,53,125,129v0,77,-49,133,-125,133","w":1175},"\u00ec":{"d":"59,-1036r338,0r0,864r156,0r0,172r-492,0r0,-172r148,0r0,-692r-150,0r0,-172xm287,-1178r-287,-282r0,-17r248,0r184,299r-145,0","w":612},"\u00ed":{"d":"59,-1036r338,0r0,864r156,0r0,172r-492,0r0,-172r148,0r0,-692r-150,0r0,-172xm326,-1477r240,0r0,17r-299,282r-154,0","w":612},"\u00ee":{"d":"59,-1036r338,0r0,864r156,0r0,172r-492,0r0,-172r148,0r0,-692r-150,0r0,-172xm58,-1176r250,-313r63,0r252,313r-149,0r-133,-155r-135,155r-148,0","w":612},"\u00ef":{"d":"92,-1036r338,0r0,864r156,0r0,172r-492,0r0,-172r148,0r0,-692r-150,0r0,-172xm464,-1270v-79,0,-131,-55,-131,-133v0,-77,53,-129,131,-129v76,0,129,53,129,129v0,78,-51,133,-129,133xm144,-1270v-79,0,-131,-55,-131,-133v0,-77,53,-129,131,-129v76,0,129,53,129,129v0,78,-51,133,-129,133","w":657},"\u00f2":{"d":"125,-295v-51,-131,-51,-317,1,-447v74,-189,226,-324,480,-324v253,0,408,132,480,322v50,131,51,314,0,446v-73,191,-225,329,-480,329v-256,0,-407,-136,-481,-326xm932,-518v0,-230,-104,-388,-326,-388v-217,0,-323,161,-323,388v0,179,78,303,199,362v77,37,175,35,252,0v123,-58,198,-182,198,-362xm592,-1178r-287,-282r0,-17r248,0r184,299r-145,0","w":1225},"\u00f1":{"d":"760,-1055v244,0,361,138,362,387r0,496r144,0r0,172r-484,0r0,-172r146,0r0,-473v1,-156,-81,-243,-234,-242v-103,1,-189,58,-256,108r0,607r146,0r0,172r-484,0r0,-172r144,0r0,-692r-144,0r0,-172r330,0v2,39,-4,87,2,122v84,-71,178,-141,328,-141xm323,-1251v29,-102,100,-162,225,-164v130,-2,167,104,287,104v46,0,82,-33,90,-80r119,35v-22,133,-163,211,-312,162v-70,-23,-110,-78,-192,-82v-62,-3,-96,25,-108,78","w":1366},"\u00f3":{"d":"125,-295v-51,-131,-51,-317,1,-447v74,-189,226,-324,480,-324v253,0,408,132,480,322v50,131,51,314,0,446v-73,191,-225,329,-480,329v-256,0,-407,-136,-481,-326xm932,-518v0,-230,-104,-388,-326,-388v-217,0,-323,161,-323,388v0,179,78,303,199,362v77,37,175,35,252,0v123,-58,198,-182,198,-362xm592,-1477r240,0r0,17r-299,282r-154,0","w":1225},"\u00f4":{"d":"125,-295v-51,-131,-51,-317,1,-447v74,-189,226,-324,480,-324v253,0,408,132,480,322v50,131,51,314,0,446v-73,191,-225,329,-480,329v-256,0,-407,-136,-481,-326xm932,-518v0,-230,-104,-388,-326,-388v-217,0,-323,161,-323,388v0,179,78,303,199,362v77,37,175,35,252,0v123,-58,198,-182,198,-362xm323,-1176r250,-313r63,0r252,313r-149,0r-133,-155r-135,155r-148,0","w":1225},"\u00f9":{"d":"607,-150v97,0,189,-39,256,-83r0,-631r-139,0r0,-172r334,0r0,864r115,0r0,172r-302,0r0,-96v-85,65,-189,114,-329,114v-237,0,-341,-144,-342,-387r0,-495r-140,0r0,-172r334,0r0,645v-1,151,69,241,213,241xm603,-1178r-287,-282r0,-17r248,0r184,299r-145,0","w":1350},"\u00fa":{"d":"607,-150v97,0,189,-39,256,-83r0,-631r-139,0r0,-172r334,0r0,864r115,0r0,172r-302,0r0,-96v-85,65,-189,114,-329,114v-237,0,-341,-144,-342,-387r0,-495r-140,0r0,-172r334,0r0,645v-1,151,69,241,213,241xm603,-1477r240,0r0,17r-299,282r-154,0","w":1350},"\u00fb":{"d":"607,-150v97,0,189,-39,256,-83r0,-631r-139,0r0,-172r334,0r0,864r115,0r0,172r-302,0r0,-96v-85,65,-189,114,-329,114v-237,0,-341,-144,-342,-387r0,-495r-140,0r0,-172r334,0r0,645v-1,151,69,241,213,241xm334,-1176r250,-313r63,0r252,313r-149,0r-133,-155r-135,155r-148,0","w":1350},"\u00fd":{"d":"31,-1036r393,0r0,172r-123,0r243,661r254,-661r-122,0r0,-172r393,0r0,172r-107,0r-461,1163r142,0r0,172r-418,0r0,-172r126,0r110,-285r-346,-878r-84,0r0,-172xm628,-1477r240,0r0,17r-299,282r-154,0","w":1176},"\u2215":{"d":"758,-1167r198,0r-960,1228r-199,0","w":800},"\u00f7":{"d":"545,-774v-79,0,-131,-55,-131,-133v0,-77,53,-129,131,-129v76,0,129,53,129,129v0,78,-51,133,-129,133xm545,12v-79,0,-131,-55,-131,-133v0,-77,53,-129,131,-129v76,0,129,53,129,129v0,78,-51,133,-129,133xm51,-614r1024,0r0,162r-1024,0r0,-162","w":1126},"\u00a5":{"d":"51,-1516r492,0r0,172r-145,0r286,488r305,-488r-157,0r0,-172r492,0r0,172r-129,0r-328,496r184,0r0,141r-283,0r0,148r283,0r0,141r-283,0r0,246r156,0r0,172r-492,0r0,-172r139,0r0,-246r-270,0r0,-141r270,0r0,-148r-270,0r0,-141r178,0r-311,-496r-117,0r0,-172","w":1354},"\u2082":{"d":"356,-752v159,0,276,95,247,262v-8,47,-38,82,-69,113r-229,236r301,0r0,141r-504,0r0,-121r305,-307v22,-27,45,-54,45,-98v0,-50,-44,-88,-100,-86v-66,2,-104,37,-107,100r-145,0v5,-154,102,-240,256,-240","w":800},"\u2084":{"d":"1735,-303r280,-457r148,0r-273,455r183,0r0,-164r135,0r0,164r112,0r0,110r-112,0r0,195r-135,0r0,-195r-336,0","w":2806},"\u201e":{"d":"205,-283r219,86r-260,537r-144,-53xm666,-283r219,86r-260,537r-144,-53","w":1005},"\u2074":{"d":"115,-1137r278,-467r131,0r-268,463r190,0r0,-137r119,-6r0,143r115,0r0,101r-115,0r0,194r-119,0r0,-194r-331,0r0,-97","w":809},"\u00a7":{"d":"559,471v-233,1,-362,-106,-415,-281r-70,0r0,-165r237,0v-5,174,91,256,256,264v168,9,270,-145,203,-296v-73,-165,-332,-149,-482,-239v-102,-61,-173,-151,-173,-311v0,-155,80,-263,190,-323v-85,-63,-153,-163,-149,-310v6,-244,173,-358,424,-358v209,0,352,82,408,235r65,0r0,166r-232,0r0,-56v-26,-106,-118,-167,-246,-167v-129,0,-221,46,-221,168v0,188,198,201,337,258v179,73,356,134,356,381v0,158,-88,268,-196,331v89,65,144,154,144,304v0,195,-114,312,-261,369v-53,20,-112,30,-175,30xm602,-767v-164,0,-284,49,-289,200v-5,169,164,167,286,223v137,-3,241,-76,241,-209v0,-142,-125,-180,-238,-214","w":1094},"\u0178":{"d":"51,-1516r492,0r0,173r-144,0r285,487r305,-487r-158,0r0,-173r492,0r0,173r-129,0r-426,646r0,525r156,0r0,172r-492,0r0,-172r139,0r0,-530r-402,-641r-118,0r0,-173xm469,-1707v-79,0,-131,-55,-131,-133v0,-77,53,-129,131,-129v76,0,129,53,129,129v0,78,-51,133,-129,133xm928,-1707v-79,0,-131,-55,-131,-133v0,-77,53,-129,131,-129v76,0,129,53,129,129v0,78,-51,133,-129,133","w":1354},"\u00ff":{"d":"319,-1228v-79,0,-131,-55,-131,-133v0,-77,53,-129,131,-129v76,0,129,53,129,129v0,78,-51,133,-129,133xm778,-1228v-79,0,-131,-55,-131,-133v0,-77,53,-129,131,-129v76,0,129,53,129,129v0,78,-51,133,-129,133xm31,-1036r393,0r0,172r-123,0r243,661r254,-661r-122,0r0,-172r393,0r0,172r-107,0r-461,1163r142,0r0,172r-418,0r0,-172r126,0r110,-285r-346,-878r-84,0r0,-172","w":1176},"\u00a0":{"d":false,"w":448}}});
/*!
 * The following copyright notice may not be removed under any circumstances.
 * 
 * Copyright:
 * Copyright (c) 2010 by Anton Koovit.
 * 
 * Trademark:
 * Arvo is a trademark of Anton Koovit. 2010
 * 
 * Description:
 * Copyright (c) 2010 by Anton Koovit. All rights reserved under SIL openfont
 * License 1.1
 * 
 * Manufacturer:
 * Anton Koovit
 * 
 * Designer:
 * Anton Koovit
 * 
 * Vendor URL:
 * http://www.korkork.com/
 * 
 * License information:
 * http://www.korkork.com/license/arvo/
 */
Cufon.registerFont({"w":1245,"face":{"font-family":"arvo","font-weight":700,"font-stretch":"normal","units-per-em":"2048","panose-1":"2 0 0 0 0 0 0 0 0 0","ascent":"1638","descent":"-410","x-height":"25","bbox":"-209 -2024.04 2337 512","underline-thickness":"102","underline-position":"-103","unicode-range":"U+0020-U+2212"},"glyphs":{" ":{"w":410},"A":{"d":"893,-274r151,0r-68,-218r-466,0r-68,218r160,0r0,274r-575,0r0,-274r113,0r413,-1242r401,0r404,1242r110,0r0,274r-575,0r0,-274xm589,-748r306,0r-154,-493","w":1491,"k":{"Y":150,"V":100,"T":100}},"B":{"d":"1171,-759v92,60,162,145,162,290v0,223,-117,366,-278,435v-56,23,-116,34,-181,34r-761,0r0,-274r155,0r0,-967r-155,0r0,-277r739,2v223,4,363,121,432,282v24,55,35,114,35,177v0,150,-55,239,-148,298xm991,-453v0,-96,-48,-174,-139,-174r-252,0r0,353r252,0v91,-8,139,-84,139,-179xm975,-1067v0,-90,-49,-174,-137,-174r-238,0r0,340r238,0v87,-8,137,-76,137,-166","w":1386},"C":{"d":"799,-1544v199,0,269,45,392,151r224,0r0,338r-309,0v-78,-113,-143,-176,-307,-176v-197,0,-306,135,-363,289v-67,181,-10,411,81,514v65,74,154,139,282,139v174,0,274,-107,331,-231r322,90v-67,207,-219,351,-426,422v-205,70,-463,21,-600,-72v-204,-139,-360,-349,-360,-680v0,-361,192,-602,446,-722v89,-42,184,-62,287,-62","w":1554},"D":{"d":"82,-1516r582,0v321,8,517,166,643,373v88,144,132,381,74,585v-75,267,-253,453,-517,531v-63,19,-131,27,-200,27r-582,0r0,-274r121,0r0,-967r-121,0r0,-275xm535,-1241r0,967v112,0,201,6,280,-38v142,-80,240,-232,240,-448v0,-214,-98,-367,-240,-444v-79,-43,-168,-37,-280,-37","w":1468},"E":{"d":"113,-1516r1206,0r0,517r-326,0r0,-215r-389,0r0,299r301,0r0,290r-301,0r0,351r389,0r0,-269r326,0r0,543r-1206,0r0,-274r159,0r0,-940r-159,0r0,-302","w":1380},"F":{"d":"113,-1516r1173,0r0,517r-325,0r0,-213r-359,0r0,319r311,0r0,291r-311,0r0,328r160,0r0,274r-649,0r0,-274r157,0r0,-938r-157,0r0,-304","w":1286,"k":{".":250,",":220}},"G":{"d":"799,-1542v192,0,272,49,392,149r224,0r0,338r-309,0v-53,-83,-93,-120,-174,-156v-77,-34,-212,-23,-289,17v-176,91,-293,355,-210,607v50,153,170,283,366,283v155,0,259,-103,299,-231r-289,0r0,-274r702,0r0,809r-299,0r0,-260v-73,128,-131,189,-254,242v-118,51,-335,26,-444,-22v-180,-79,-309,-222,-386,-398v-96,-219,-68,-537,37,-716v125,-213,311,-388,634,-388","w":1636},"H":{"d":"1128,-1516r650,0r0,275r-160,0r0,967r160,0r0,274r-650,0r0,-274r158,0r0,-388r-684,0r0,388r160,0r0,274r-649,0r0,-274r157,0r0,-967r-157,0r0,-275r649,0r0,275r-160,0r0,315r684,0r0,-315r-158,0r0,-275","w":1890},"I":{"d":"113,-1516r649,0r0,274r-160,0r0,968r160,0r0,274r-649,0r0,-274r157,0r0,-968r-157,0r0,-274","w":810},"J":{"d":"10,223v93,-147,164,-249,213,-428r0,-1007r-141,0r0,-304r573,0r0,304r-106,0r0,1040v-26,105,-93,195,-147,271v-27,37,-64,83,-113,139","w":686},"K":{"d":"113,-1516r649,0r0,275r-160,0r0,441r485,-423r0,-293r517,0r0,295r-113,0r-505,434r484,490r123,0r0,297r-503,0r0,-297r-488,-488r0,511r160,0r0,274r-649,0r0,-274r157,0r0,-967r-157,0r0,-275","w":1655},"L":{"d":"932,-274v103,-14,61,-175,69,-283r324,0r0,557r-1212,0r0,-274r157,0r0,-967r-157,0r0,-275r649,0r0,275r-160,0r0,967r330,0","w":1346},"M":{"d":"113,-274r141,0r0,-967r-141,0r0,-275r624,0r447,1094r415,-1094r633,0r0,275r-141,0r0,967r139,0r0,274r-567,0r0,-274r104,0r0,-872r-454,1128r-281,0r-462,-1098r0,842r113,0r0,274r-570,0r0,-274","w":2345},"N":{"d":"1071,-1516r576,0r0,275r-123,0r0,1241r-332,0r-631,-980r0,706r127,0r0,274r-575,0r0,-274r125,0r0,-967r-123,0r0,-275r458,0r627,993r0,-718r-129,0r0,-275","w":1698},"O":{"d":"1434,-362v-145,261,-440,468,-832,361v-266,-73,-443,-274,-510,-548v-97,-400,84,-730,334,-888v140,-88,369,-141,570,-79v264,83,437,275,512,548v58,213,6,462,-74,606xm641,-324v94,50,223,50,317,0v141,-74,234,-225,234,-434v0,-210,-94,-361,-235,-436v-94,-50,-223,-50,-316,0v-141,75,-235,226,-235,436v0,208,95,359,235,434","w":1620},"P":{"d":"113,-1516r700,0v243,3,413,114,495,278v90,179,17,425,-89,528v-91,89,-224,147,-406,147r-211,0r0,289r139,0r0,274r-628,0r0,-274r157,0r0,-967r-157,0r0,-275xm987,-1034v-1,-139,-98,-209,-248,-207r-137,0r0,407r137,0v145,-1,249,-56,248,-200","w":1400,"k":{".":300,",":300}},"Q":{"d":"856,274v-64,-28,-134,-30,-199,-10r2,-252v-274,-60,-459,-249,-549,-498v-79,-218,-40,-507,55,-670v124,-214,311,-388,634,-388v323,0,511,175,635,388v98,169,134,457,54,674v-93,252,-280,441,-564,497v79,31,145,91,247,91v102,0,164,-52,179,-143r223,111v-30,196,-162,321,-379,321v-136,0,-235,-76,-338,-121xm641,-324v94,50,223,50,317,0v141,-74,234,-225,234,-434v0,-210,-94,-361,-235,-436v-94,-50,-223,-50,-316,0v-141,75,-235,226,-235,436v0,208,95,359,235,434","w":1634},"R":{"d":"1409,-1090v1,212,-103,312,-247,380v76,41,123,116,149,218r51,197r125,0r2,295r-440,0v-30,-154,-40,-331,-87,-470v-31,-91,-107,-134,-231,-134r-129,0r0,330r139,0r0,274r-628,0r0,-274r157,0r0,-967r-157,0r0,-275r802,0v233,2,388,103,461,264v23,51,33,106,33,162xm1049,-1055v0,-131,-102,-186,-248,-186r-199,0r0,367v209,1,447,26,447,-181","w":1530},"S":{"d":"618,-1561v238,0,405,100,486,258r100,0r0,302r-362,0r0,-88v-21,-104,-104,-168,-224,-168v-102,0,-182,36,-182,137v0,122,118,130,209,164v170,63,368,96,469,232v78,106,104,320,38,462v-84,180,-257,293,-515,293v-247,0,-414,-107,-493,-281r-103,0r0,-301r362,0v-14,179,67,269,234,270v112,1,184,-52,184,-157v0,-107,-98,-129,-180,-158v-169,-59,-357,-93,-461,-220v-58,-71,-103,-164,-102,-292v3,-236,137,-364,323,-423v66,-20,138,-30,217,-30"},"T":{"d":"373,-274r157,0r0,-977r-184,0r0,196r-326,0r0,-461r1379,0r0,461r-328,0r0,-196r-209,0r0,977r160,0r0,274r-649,0r0,-274","w":1430,"k":{"\u00c5":100,"\u00c4":100,"\u00c3":100,"\u00c2":100,"\u00c1":100,"\u00c0":100,"\u00c6":100,"\u0131":150,".":280,",":280,"q":200,"o":200,"g":200,"e":200,"d":200,"c":200,"a":150,"A":100}},"U":{"d":"782,-295v193,2,262,-117,262,-317r0,-629r-161,0r0,-275r608,0r0,275r-121,0r0,590v-2,319,-138,530,-362,626v-141,61,-322,62,-462,1v-218,-94,-358,-299,-358,-609r0,-608r-137,0r0,-275r608,0r0,275r-139,0r0,629v1,194,76,315,262,317","w":1561},"V":{"d":"860,-1516r649,0r0,275r-135,0r-405,1241r-410,0r-393,-1241r-146,0r0,-275r650,0r0,275r-162,0r264,860r263,-860r-175,0r0,-275","w":1530,"k":{"\u00c5":100,"\u00c4":100,"\u00c3":100,"\u00c2":100,"\u00c1":100,"\u00c0":100,"\u00c6":200,".":180,",":180,"u":100,"q":160,"o":160,"m":100,"g":160,"e":160,"d":160,"c":160,"a":100,"A":100}},"W":{"d":"1688,-1516r649,0r0,275r-137,0r-349,1241r-432,0r-229,-946r-234,946r-428,0r-355,-1241r-153,0r0,-275r650,0r0,275r-158,0r223,817r269,-1089r372,0r264,1089r224,-817r-176,0r0,-275","w":2357},"X":{"d":"858,-1516r643,0r0,275r-52,0r-459,487r458,480r49,0r0,274r-643,0r0,-274r153,0r-234,-248r-233,248r136,0r0,274r-643,0r0,-274r69,0r452,-480r-463,-487r-54,0r0,-275r643,0r0,275r-153,0r244,257r242,-257r-155,0r0,-275","w":1577},"Y":{"d":"47,-1516r649,0r0,275r-127,0r203,348r215,-348r-145,0r0,-275r649,0r0,275r-112,0r-451,612r0,355r184,0r0,274r-676,0r0,-274r168,0r0,-359r-424,-608r-133,0r0,-275","w":1536,"k":{"\u00c5":100,"\u00c4":100,"\u00c3":100,"\u00c2":100,"\u00c1":100,"\u00c0":100,"\u00c6":250,".":225,",":200,"q":200,"o":200,"e":200,"d":200,"c":200,"a":150,"A":100}},"Z":{"d":"1214,-1202r-755,905r428,0r0,-235r325,0r0,532r-1151,0r0,-313r737,-906r-409,0r0,240r-326,0r0,-537r1151,0r0,314","w":1290},"_":{"d":"0,90r1024,0r0,256r-1024,0r0,-256","w":1024},"a":{"d":"563,-1059v281,0,447,124,447,408r0,377r139,0r0,274r-432,0r0,-56v-72,45,-136,82,-250,81v-184,-1,-310,-75,-368,-201v-36,-79,-35,-185,1,-264v60,-128,191,-196,379,-197v90,0,167,11,238,26v10,-137,-78,-181,-205,-182v-130,0,-216,27,-303,72r-96,-194v123,-83,261,-144,450,-144xm354,-319v0,69,55,108,135,108v96,0,175,-37,228,-79r0,-132r-240,0v-68,4,-123,34,-123,103","w":1280},"b":{"d":"924,-24v-129,58,-322,52,-443,-4r0,28r-307,0r0,-1282r-145,0r0,-274r452,0r0,543v118,-64,308,-72,441,-11v182,84,321,247,321,500v0,253,-136,417,-319,500xm938,-522v0,-162,-92,-269,-250,-269v-99,0,-165,50,-207,116r0,310v48,82,184,138,302,89v91,-39,155,-119,155,-246","w":1305},"c":{"d":"402,-1030v171,-69,406,-41,531,51r199,0r0,301r-276,0v-53,-64,-112,-105,-221,-105v-128,0,-203,64,-241,157v-13,33,-19,71,-19,112v0,162,104,268,260,268v123,0,197,-83,239,-172r275,76v-73,212,-248,367,-533,367v-262,0,-424,-146,-504,-338v-54,-131,-53,-301,2,-431v56,-131,155,-232,288,-286","w":1180},"d":{"d":"390,-1025v131,-58,328,-53,448,6r0,-263r-145,0r0,-274r453,0r0,1282r202,0r0,274r-510,0r0,-40v-115,70,-309,79,-444,18v-186,-84,-322,-247,-322,-504v0,-254,134,-417,318,-499xm378,-523v0,163,95,267,252,267v96,0,166,-55,208,-118r0,-305v-50,-86,-186,-143,-306,-93v-91,38,-154,120,-154,249","w":1400},"e":{"d":"1042,-104v-123,75,-231,134,-428,131v-278,-3,-448,-139,-526,-343v-51,-133,-52,-299,2,-430v79,-193,242,-335,506,-335v255,0,406,132,476,321v34,92,44,192,40,307r-763,0v11,226,316,249,510,171r73,-27xm791,-664v-21,-102,-77,-167,-203,-167v-134,0,-202,64,-230,167r433,0","w":1186},"f":{"d":"659,-1319v-83,2,-129,51,-129,137r0,146r189,0r0,262r-189,0r0,500r191,0r0,274r-643,0r0,-274r155,0r0,-500r-157,0r0,-262r157,0v2,-122,-8,-246,32,-332v69,-149,239,-239,458,-202v73,12,132,39,174,77r-115,211v-32,-23,-67,-38,-123,-37","w":815,"k":{".":50,",":90}},"g":{"d":"599,201v168,0,253,-81,250,-255v-115,74,-310,77,-447,19v-190,-80,-330,-241,-330,-500v0,-249,138,-408,320,-489v136,-61,336,-51,457,10r0,-22r303,0r0,993v-2,264,-139,413,-341,477v-238,76,-525,3,-667,-106r125,-222v88,55,191,95,330,95xm378,-534v0,161,95,263,255,263v102,0,177,-60,216,-129r2,-252v-39,-75,-118,-138,-221,-138v-151,0,-252,99,-252,256","w":1295},"h":{"d":"729,-762v-84,0,-149,48,-205,98r0,390r152,0r0,274r-619,0r0,-274r160,0r0,-1008r-160,0r0,-274r467,0r0,616v72,-65,158,-114,285,-115v255,0,385,149,385,410r0,371r152,0r0,274r-463,0r0,-575v2,-106,-57,-187,-154,-187","w":1386},"i":{"d":"80,-1036r465,0r0,762r144,0r0,274r-609,0r0,-274r156,0r0,-488r-156,0r0,-274xm398,-1192v-108,0,-178,-70,-178,-178v0,-108,70,-178,178,-178v106,0,176,72,176,178v0,106,-70,178,-176,178","w":790},"j":{"d":"57,242v102,-4,142,-91,142,-203r0,-801r-148,0r0,-274r455,0r0,1054v1,301,-146,451,-445,451xm360,-1192v-108,0,-178,-70,-178,-178v0,-108,70,-178,178,-178v106,0,179,71,179,178v0,107,-73,178,-179,178","w":621},"k":{"d":"59,-1556r467,0r0,897r175,0r72,-103r0,-274r536,0r0,274r-186,0r-193,223r197,238r172,0r0,301r-281,0r-336,-444r-156,0r0,170r106,0r0,274r-573,0r0,-274r160,0r0,-1008r-160,0r0,-274","w":1450,"k":{"e":50,"c":50}},"l":{"d":"59,-1556r467,0r0,1282r160,0r0,274r-627,0r0,-274r160,0r0,-1008r-160,0r0,-274","w":780},"m":{"d":"1463,-782v-100,2,-150,47,-204,118r1,390r150,0r0,274r-473,0r0,-596v4,-151,-139,-225,-277,-164v-36,15,-69,44,-102,85r0,401r166,0r0,274r-644,0r0,-274r154,0r0,-488r-152,0r0,-274r474,0r0,90v76,-61,182,-111,309,-111v164,0,274,59,335,168v85,-90,198,-166,367,-168v257,-3,394,149,394,412r0,371r147,0r0,274r-473,0r0,-594v1,-113,-62,-191,-172,-188","w":2156},"n":{"d":"869,-1055v254,0,389,149,389,410r0,371r147,0r0,274r-473,0r0,-596v2,-110,-63,-188,-168,-186v-96,2,-155,41,-208,109r0,399r168,0r0,274r-644,0r0,-274r152,0r0,-488r-150,0r0,-274r472,0r0,91v79,-61,184,-109,315,-110","w":1460},"o":{"d":"112,-308v-53,-130,-54,-297,1,-426v82,-191,246,-333,510,-333v263,0,430,142,511,333v54,129,53,294,0,424v-80,194,-245,335,-511,335v-266,0,-432,-139,-511,-333xm872,-522v4,-196,-156,-312,-346,-250v-120,40,-189,206,-135,358v41,115,186,203,331,142v91,-38,147,-123,150,-250"},"p":{"d":"988,-24v-131,59,-327,52,-449,-6r0,227r198,0r0,274r-676,0r0,-274r170,0r0,-959r-112,0r0,-274r452,0r0,15v114,-57,289,-60,413,-3v183,84,323,246,323,500v0,253,-136,418,-319,500xm1001,-522v0,-164,-91,-269,-251,-269v-98,0,-168,57,-211,126r0,292v47,86,186,148,308,95v89,-39,154,-120,154,-244","w":1368},"q":{"d":"380,-1024v128,-58,321,-54,441,3r0,-46r307,0r0,1264r154,0r0,274r-676,0r0,-274r215,0r0,-234v-115,67,-304,75,-437,15v-186,-84,-323,-249,-323,-506v0,-252,137,-414,319,-496xm367,-524v0,163,94,266,254,266v92,0,159,-48,200,-107r0,-321v-52,-80,-183,-136,-300,-86v-91,39,-154,121,-154,248","w":1333},"r":{"d":"754,-1036r266,2r0,375r-281,0r0,-107v-108,-1,-202,26,-202,117r0,375r211,0r0,274r-676,0r0,-274r155,0r0,-488r-153,0r0,-274r461,0r0,73v55,-43,126,-73,219,-73","w":1110},"s":{"d":"191,-996v143,-114,498,-123,634,-1r174,0r0,278r-258,0v-15,-97,-121,-121,-233,-121v-73,0,-156,23,-134,103v9,33,46,44,87,53v249,53,549,65,549,352v0,196,-143,289,-302,334v-166,47,-377,22,-472,-68r-181,0r0,-278r283,0v7,96,99,121,199,123v94,2,163,-16,172,-84v-4,-52,-36,-70,-91,-82v-252,-54,-557,-87,-557,-367v0,-112,62,-187,130,-242","w":1102},"t":{"d":"461,25v-199,-6,-306,-133,-305,-340r3,-459r-149,0r0,-262r150,0r2,-248r311,-148r-2,396r207,0r0,262r-209,0r-2,438v0,75,16,123,88,123v52,0,86,-12,125,-25r43,193v-70,43,-148,73,-262,70","w":800},"u":{"d":"709,-219v89,0,156,-63,180,-137r0,-406r-166,0r0,-274r490,0r0,762r125,0r0,274r-439,0r0,-88v-90,93,-294,130,-450,73v-158,-58,-253,-194,-254,-411r0,-336r-135,0r0,-274r458,0r0,610v-3,130,71,207,191,207","w":1410},"v":{"d":"41,-1036r541,0r0,274r-126,0r169,445r163,-445r-112,0r0,-274r541,0r0,274r-138,0r-309,766r-305,0r-309,-766r-115,0r0,-274","w":1257},"w":{"d":"41,-1036r541,0r0,274r-117,0r110,369r213,-643r293,0r215,676r132,-402r-111,0r0,-274r541,0r0,274r-139,0r-277,766r-299,0r-217,-661r-221,661r-291,0r-257,-766r-116,0r0,-274","w":1898},"x":{"d":"686,-274r59,0r-129,-123r-134,123r67,0r0,274r-488,0r0,-274r103,0r257,-252r-238,-236r-122,0r0,-274r488,0r0,274r-47,0r121,107r116,-107r-55,0r0,-274r487,0r0,274r-114,0r-239,237r253,251r103,0r0,274r-488,0r0,-274","w":1235},"y":{"d":"51,-1036r508,0r0,274r-80,0r149,388r153,-388r-89,0r0,-274r508,0r0,274r-113,0r-401,959r178,0r0,274r-643,0r0,-274r181,0r78,-197r-324,-762r-105,0r0,-274","w":1241,"k":{".":200,",":150}},"z":{"d":"94,-164r429,-606r-201,0r0,156r-261,0r0,-422r908,0r0,180r-451,588r230,0r0,-199r262,0r0,467r-916,0r0,-164","w":1140},",":{"d":"205,-283r305,107r-285,541r-205,-78","w":532},"-":{"d":"61,-449r0,-274r627,0r0,274r-627,0","w":770},".":{"d":"265,33v-118,0,-195,-76,-195,-195v0,-118,78,-195,195,-195v115,0,193,79,193,195v0,116,-77,195,-193,195","w":529},"0":{"d":"945,-47v-143,78,-401,78,-545,2v-222,-118,-318,-374,-318,-709v0,-336,95,-596,315,-718v143,-79,407,-80,551,-1v220,120,316,377,316,711v0,336,-98,594,-319,715xm406,-762v0,247,19,469,266,469v247,0,266,-221,266,-469v0,-246,-19,-469,-264,-469v-247,0,-268,222,-268,469","w":1296},"1":{"d":"115,-274r159,0r0,-791r-233,139r0,-348r418,-246r145,2r0,1244r160,0r0,274r-649,0r0,-274","w":815},"2":{"d":"618,-1241v-127,0,-191,77,-198,197r-301,0v3,-246,125,-395,307,-463v190,-71,435,-15,544,85v83,77,149,184,148,339v-1,138,-61,229,-135,309r-432,467r565,0r0,307r-989,0r0,-260r524,-557v73,-73,142,-146,142,-266v0,-98,-72,-158,-175,-158","w":1178},"3":{"d":"541,-924v110,-3,184,-52,186,-159v3,-152,-210,-217,-321,-122v-40,34,-57,60,-56,142r-311,-2v8,-225,126,-373,293,-446v117,-51,280,-52,401,-3v164,68,305,196,305,412v0,138,-64,246,-149,305v101,61,172,172,172,330v0,231,-144,373,-317,446v-120,50,-277,49,-402,6v-160,-56,-283,-194,-318,-362v-7,-35,-7,-72,-8,-110r314,0v-3,162,140,240,292,189v69,-23,126,-78,126,-167v0,-122,-84,-186,-209,-186r-140,0r0,-273r142,0","w":1087},"4":{"d":"10,-670r539,-846r334,0r-531,848r320,0r0,-293r313,-4r0,297r211,0r0,254r-211,0r0,140r193,0r0,274r-650,0r0,-274r144,0r0,-140r-662,0r0,-256","w":1231},"5":{"d":"627,-707v-92,-2,-144,19,-209,48r-271,-50r0,-807r963,0r0,306r-674,0r0,284v113,-47,288,-60,416,-12v181,67,313,209,313,453v0,259,-141,412,-333,483v-185,69,-419,21,-536,-69v-91,-70,-162,-170,-185,-306r309,-84v18,119,88,201,219,201v137,0,215,-94,215,-232v0,-132,-92,-212,-227,-215","w":1206},"6":{"d":"913,-1518r-309,541v180,-3,302,73,390,171v67,74,118,179,118,310v0,244,-142,395,-322,470v-124,52,-280,52,-404,0v-177,-75,-320,-220,-320,-459v0,-154,65,-253,122,-355r375,-678r350,0xm815,-487v0,-134,-98,-207,-233,-207v-132,0,-222,68,-222,205v0,129,90,208,228,208v129,0,227,-75,227,-206","w":1163},"7":{"d":"229,-274r106,0r416,-930r-423,0r0,172r-287,0r0,-484r1108,0r0,226r-241,500r-237,516r99,0r0,274r-541,0r0,-274","w":1190},"8":{"d":"298,-798v-80,-67,-148,-163,-148,-294v0,-217,137,-348,299,-416v117,-49,265,-48,382,0v163,67,302,195,302,410v0,134,-70,235,-150,303v99,71,182,179,182,334v0,232,-146,374,-319,449v-149,65,-360,41,-476,-31v-137,-85,-257,-206,-257,-414v0,-158,85,-270,185,-341xm730,-646v-190,-63,-386,74,-309,259v40,95,180,154,309,109v95,-33,180,-143,124,-262v-23,-49,-69,-88,-124,-106xm639,-1255v-113,0,-199,64,-199,174v0,108,87,168,199,168v112,0,201,-61,201,-168v0,-109,-87,-174,-201,-174","w":1180},"9":{"d":"305,2r307,-540v-178,1,-300,-75,-388,-172v-67,-74,-118,-178,-118,-310v0,-244,141,-396,321,-470v125,-52,280,-52,405,0v177,74,321,220,321,460v0,154,-66,251,-123,354r-375,678r-350,0xm403,-1028v0,135,99,207,234,207v133,0,219,-69,219,-205v0,-153,-148,-247,-308,-195v-80,26,-145,88,-145,193","w":1151},"!":{"d":"317,33v-108,0,-178,-70,-178,-178v0,-108,70,-179,178,-179v106,0,177,72,177,179v0,107,-71,178,-177,178xm139,-1577r369,0r-41,1067r-287,0","w":696},"%":{"d":"434,-828v-163,-65,-280,-266,-195,-481v52,-132,171,-227,351,-227v180,0,294,98,351,227v64,146,1,319,-77,399v-87,90,-279,143,-430,82xm729,-1167v0,-85,-54,-138,-139,-138v-85,0,-139,52,-139,138v0,84,55,139,139,139v84,0,139,-55,139,-139xm1370,-1540r266,0r-1025,1540r-266,0xm1248,-40v-163,-66,-281,-266,-196,-481v52,-132,171,-227,351,-227v180,0,294,98,351,227v64,146,2,321,-76,401v-87,90,-279,141,-430,80xm1542,-379v0,-85,-55,-137,-139,-137v-84,0,-139,51,-139,137v0,84,56,139,139,139v85,0,139,-55,139,-139","w":1833},"&":{"d":"1278,-797v-11,145,-51,280,-106,393r255,250r-231,203r-201,-206v-102,95,-231,171,-417,171v-227,0,-376,-121,-450,-284v-25,-57,-38,-119,-38,-185v2,-194,102,-311,226,-399v-82,-83,-148,-181,-148,-336v0,-193,119,-314,262,-376v103,-45,244,-42,346,1v166,70,296,248,238,481v-34,137,-131,224,-238,290r164,162v17,-54,30,-109,39,-165r299,0xm526,-638v-61,40,-120,80,-120,177v0,104,72,168,180,170v90,2,152,-35,202,-79xm600,-1325v-115,-5,-169,104,-128,211v20,52,62,79,96,116r58,-33v59,-34,111,-70,107,-161v-3,-79,-54,-130,-133,-133","w":1337},"'":{"d":"256,-1059r-219,0r0,-518r287,-16","w":340},"\"":{"d":"289,-1059r-207,0r-41,-518r266,0xm588,-1059r-199,0r-14,-518r260,0","w":651},"(":{"d":"434,-647v0,410,145,709,324,954r-248,160v-225,-282,-401,-625,-401,-1114v0,-470,170,-839,405,-1122r246,172v-181,243,-326,541,-326,950","w":721},")":{"d":"256,-1769v232,284,401,646,401,1114v0,469,-171,839,-405,1122r-246,-172v181,-242,326,-541,326,-950v0,-410,-146,-709,-324,-955","w":721},"*":{"d":"629,-1364r239,-78r78,238r-241,77r149,205r-203,148r-148,-206r-147,206r-202,-148r148,-205r-241,-77r78,-238r240,78r0,-252r250,0r0,252","w":1008},"+":{"d":"102,-733r363,0r0,-363r297,0r0,363r364,0r0,297r-364,0r0,364r-297,0r0,-364r-363,0r0,-297","w":1229},"\/":{"d":"633,-1556r256,0r-578,1556r-262,0","w":807},"@":{"d":"914,-929v119,-55,296,-48,407,4r0,-31r287,0r0,647v0,52,18,98,67,98v146,0,164,-177,164,-330v0,-279,-159,-443,-342,-553v-132,-79,-350,-120,-536,-66v-244,71,-411,240,-481,483v-77,268,34,536,176,673v115,111,278,203,489,203v155,0,280,-55,389,-119r137,227v-195,125,-497,204,-781,122v-338,-98,-569,-330,-668,-667v-77,-261,-10,-567,96,-738v128,-206,315,-365,572,-438v261,-75,566,-10,740,92v204,120,363,298,439,542v68,219,21,484,-85,619v-75,96,-182,179,-344,179v-112,0,-189,-43,-241,-107v-64,56,-162,105,-269,105v-240,0,-393,-133,-469,-306v-51,-116,-51,-257,-2,-375v48,-120,138,-210,255,-264xm926,-479v0,125,80,203,204,203v91,0,157,-53,191,-120r0,-159v-34,-70,-90,-131,-188,-131v-124,0,-207,83,-207,207","w":2267},"[":{"d":"82,-1612r547,0r0,246r-223,0r0,1630r223,0r0,248r-547,0r0,-2124","w":670},"\\":{"d":"6,-1384r236,0r571,1677r-242,0","w":778},"]":{"d":"266,-1366r-223,0r0,-246r547,0r0,2124r-547,0r0,-248r223,0r0,-1630","w":670},"\u2022":{"d":"384,-472v-145,-60,-253,-239,-178,-435v55,-144,248,-254,434,-175v114,48,202,148,202,304v0,155,-90,255,-202,306v-79,35,-176,33,-256,0","w":1024},"\u00b6":{"d":"436,-532v-214,-65,-375,-209,-375,-482v0,-249,154,-392,347,-463v73,-26,154,-39,243,-39r684,0r0,275r-141,0r0,1603r-293,0r0,-1603r-172,0r0,1603r-293,0r0,-894","w":1417},"\u00df":{"d":"963,-483v0,-149,-108,-224,-279,-211r-2,-285v48,-1,103,4,131,-17v37,-28,69,-73,70,-132v2,-105,-68,-180,-176,-177v-106,3,-160,71,-160,179r0,1124r-510,2r0,-274r207,0r0,-908v9,-185,122,-301,266,-362v109,-46,277,-46,390,-2v154,60,270,177,274,377v3,126,-43,211,-108,271v128,77,222,212,222,404v0,334,-202,499,-534,506v-29,0,-48,-2,-74,-6r14,-276v160,22,269,-65,269,-213","w":1354},"\u00ae":{"d":"1360,-1116v62,143,-25,285,-139,322v78,24,87,118,104,209r78,0r0,212r-328,0v-9,-86,-9,-211,-29,-279v-15,-52,-92,-46,-165,-46r0,113r79,0r0,212r-432,0r0,-212r95,0r0,-497r-91,0r0,-211r532,0v152,1,250,72,296,177xm1096,-989v0,-91,-112,-98,-215,-93r0,182v101,0,215,7,215,-89xm525,-92v-291,-168,-509,-519,-393,-966v79,-305,296,-509,598,-598v234,-68,509,-10,662,86v236,148,425,371,425,739v0,368,-189,593,-425,739v-162,101,-430,153,-662,86v-73,-20,-142,-49,-205,-86xm786,-1450v-324,93,-542,387,-446,792v55,230,218,386,446,448v256,70,497,-32,627,-164v131,-133,233,-378,163,-630v-63,-227,-219,-381,-446,-446v-108,-31,-235,-31,-344,0","w":2048},"\u00a9":{"d":"525,-92v-291,-168,-509,-519,-393,-966v79,-305,296,-509,598,-598v234,-68,509,-10,662,86v236,148,425,371,425,739v0,368,-189,593,-425,739v-162,101,-430,153,-662,86v-73,-20,-142,-49,-205,-86xm790,-1438v-318,91,-532,379,-438,776v53,225,213,385,438,439v396,95,696,-120,774,-439v96,-395,-121,-687,-437,-776v-106,-30,-230,-30,-337,0xm1339,-495v-85,89,-207,161,-370,161v-233,0,-382,-135,-458,-303v-52,-118,-52,-271,0,-389v76,-170,224,-302,458,-302v163,0,289,70,372,160r-193,195v-47,-71,-167,-110,-269,-69v-99,39,-174,172,-120,300v33,79,101,139,210,139v81,0,139,-33,180,-83","w":1919},"\u00ab":{"d":"567,-223r-229,0r-256,-370r0,-74r260,-369r223,0r-211,406xm1008,-223r-230,0r-256,-370r0,-74r260,-369r224,0r-211,406","w":1038},"\u00bb":{"d":"244,-630r-211,-406r223,0r260,369r0,74r-256,370r-229,0xm684,-630r-211,-406r223,0r260,369r0,74r-256,370r-229,0","w":1100},"\u2026":{"d":"217,31v-108,0,-186,-68,-186,-174v0,-109,78,-174,186,-174v109,0,191,66,191,174v0,106,-83,174,-191,174xm728,17v-128,46,-259,-32,-259,-160v0,-109,78,-174,186,-174v129,0,229,113,175,241v-18,43,-56,76,-102,93xm1094,31v-109,0,-187,-67,-187,-174v0,-109,78,-174,187,-174v108,0,190,65,190,174v0,106,-83,174,-190,174","w":1315},"\u2013":{"d":"102,-733r1024,0r0,274r-1024,0r0,-274","w":1229},"\u2014":{"d":"0,-733r1843,0r0,274r-1843,0r0,-274","w":1843},"\u201c":{"d":"737,-1657r221,84r-215,584r-284,-107xm274,-1663r222,92r-242,572r-285,-107","w":938},"\u201d":{"d":"215,-995r-221,-84r215,-584r285,107xm678,-989r-221,-92r241,-572r285,107","w":981},"\u2018":{"d":"305,-1651r205,78r-184,569r-306,-106","w":530},"\u2019":{"d":"205,-1634r305,106r-285,541r-205,-78","w":532},"\u2039":{"d":"567,-223r-229,0r-256,-370r0,-74r260,-369r223,0r-211,406","w":598},"\u203a":{"d":"244,-630r-211,-406r223,0r260,369r0,74r-256,370r-229,0","w":594},"\u00b1":{"d":"102,-948r363,0r0,-363r297,0r0,363r364,0r0,297r-364,0r0,323r-297,0r0,-323r-363,0r0,-297xm102,-274r1024,0r0,274r-1024,0r0,-274","w":1229},"\u2212":{"d":"102,-733r1024,0r0,274r-1024,0r0,-274","w":1229},"#":{"d":"166,-1198r181,0r63,-318r331,0r-62,318r326,0r62,-318r332,0r-62,318r160,0r-63,283r-152,0r-69,354r188,0r-64,280r-179,0r-54,281r-334,0r55,-281r-322,0r-54,281r-338,0r55,-281r-158,0r64,-280r149,0r70,-354r-189,0xm557,-561r323,0r69,-354r-324,0","w":1538},"<":{"d":"31,-674r755,-274r0,256r-448,134r448,144r0,250r-755,-287r0,-223","w":868},"=":{"d":"61,-567r873,0r0,286r-873,0r0,-286xm61,-997r873,0r0,286r-873,0r0,-286","w":995},">":{"d":"797,-451r-756,287r0,-250r448,-144r-448,-134r0,-256r756,274r0,223","w":827},"?":{"d":"479,33v-108,0,-178,-70,-178,-178v0,-108,70,-179,178,-179v106,0,176,73,176,179v0,106,-70,178,-176,178xm90,-1118v10,-289,185,-434,477,-434v211,0,352,95,419,246v50,115,48,277,-14,384v-35,60,-82,121,-153,172v-114,82,-190,160,-182,359r-313,0v0,-47,2,-88,2,-123v1,-180,78,-262,184,-340v87,-64,153,-125,154,-270v0,-73,-39,-133,-109,-133v-106,-1,-148,60,-147,170","w":1192},"$":{"d":"1085,-481v-6,201,-130,299,-292,348r0,321r-332,0r0,-322v-73,-22,-136,-56,-183,-106r-176,0r0,-301r342,0v4,108,71,154,181,162v90,7,145,-88,70,-130v-140,-79,-352,-84,-455,-200v-46,-52,-81,-120,-80,-217v3,-202,130,-293,301,-329r0,-324r332,0r0,341v53,18,101,41,139,71r180,0r0,301r-342,0v-4,-100,-63,-145,-164,-150v-69,-4,-129,45,-91,100v25,36,81,48,130,64v205,67,447,107,440,371"},"{":{"d":"641,367v-221,3,-301,-124,-301,-349r0,-475v-9,-100,-54,-138,-153,-141v-27,0,-55,-3,-85,-8r0,-191v78,-15,173,4,208,-59v23,-40,30,-94,30,-166r0,-401v-2,-225,79,-349,301,-349v72,0,134,4,195,9r0,307v-78,3,-134,14,-141,80v-16,148,-5,325,-5,483v0,104,-38,157,-112,189v77,30,112,95,112,200r0,371v0,84,5,140,70,155v19,5,45,8,76,9r0,327v-59,8,-123,9,-195,9","w":897},"|":{"d":"123,-1729r252,0r0,1999r-252,0r0,-1999","w":594},"}":{"d":"557,18v4,223,-80,353,-301,349r-144,-4v-19,-1,-36,-3,-51,-5r0,-327v79,-4,134,-12,141,-81v15,-136,5,-307,5,-454v0,-105,35,-170,112,-200v-74,-32,-112,-85,-112,-189r0,-410v1,-78,-10,-129,-71,-143v-19,-5,-44,-9,-75,-10r0,-307r111,-7v24,-1,52,-2,84,-2v220,-4,301,126,301,349r0,321v2,119,-2,220,56,271v40,35,115,22,182,34r0,191v-82,13,-170,-2,-210,58v-13,20,-28,49,-28,91r0,475","w":897},"~":{"d":"260,-590v-68,1,-94,46,-96,115r-172,-37v8,-187,80,-328,272,-328v148,0,234,144,381,144v72,0,89,-44,100,-115r185,41v-8,187,-96,324,-295,324v-125,0,-208,-78,-300,-122v-29,-14,-53,-22,-75,-22","w":905},"\u00a3":{"d":"599,-584v19,107,1,233,-34,310r420,0r0,274r-899,0r0,-274r160,0v31,-101,17,-237,-22,-310r-183,0r0,-245r100,0v-24,-115,-31,-273,15,-375v68,-149,200,-254,407,-254v289,0,441,161,461,440r-336,12v-2,-92,-39,-159,-119,-159v-71,0,-114,54,-112,139v2,79,23,136,46,197r269,0r0,245r-173,0","w":1065},"\u00a2":{"d":"1145,-516v-55,170,-178,295,-352,351r0,353r-332,0r0,-348v-180,-51,-303,-178,-361,-352v-63,-185,-8,-410,80,-520v69,-86,162,-159,281,-192r0,-355r332,0r0,361v49,15,95,35,136,61r199,0r0,301r-276,0v-54,-61,-115,-104,-221,-105v-199,-3,-308,187,-240,377v34,94,115,160,240,160v128,0,199,-81,239,-172"},"\u00d7":{"d":"417,-666r-356,-387r222,-200r336,366r337,-366r222,200r-356,387r343,373r-221,199r-325,-352r-324,352r-221,-199","w":1239},":":{"d":"250,-729v-108,0,-178,-70,-178,-178v0,-108,70,-178,178,-178v106,0,176,72,176,178v0,106,-70,178,-176,178xm250,33v-108,0,-178,-70,-178,-178v0,-108,70,-179,178,-179v106,0,176,73,176,179v0,106,-70,178,-176,178","w":539},";":{"d":"250,-729v-108,0,-178,-70,-178,-178v0,-108,70,-178,178,-178v106,0,176,72,176,178v0,106,-70,178,-176,178xm123,-283r305,107r-285,541r-204,-78","w":539},"\u02c6":{"d":"86,-1176r272,-325r240,0r274,325r-245,0r-148,-153r-145,153r-248,0","w":827},"\u02dc":{"d":"289,-1257v-61,-2,-100,30,-127,63r-152,-70v38,-124,140,-215,285,-215v121,0,185,93,301,93v66,0,103,-23,133,-68r158,70v-44,114,-126,210,-275,215v-136,4,-198,-83,-323,-88","w":903},"\u00af":{"d":"770,-1176r-688,0r0,-215r688,0r0,215","w":831},"\u02d8":{"d":"922,-1481v-57,199,-184,323,-439,324v-258,1,-382,-126,-442,-324r252,0v26,78,88,124,190,123v105,-1,158,-42,189,-123r250,0","w":987},"\u00b8":{"d":"182,293v136,-15,201,-110,226,-240r243,86v-58,194,-202,309,-444,316","w":926},"\u02dd":{"d":"1038,-1782r-280,320r-189,0r209,-320r260,0xm641,-1782r-256,320r-186,0r184,-320r258,0","w":1317},"\u02db":{"d":"233,205v0,92,149,71,205,45r49,166v-45,21,-112,41,-178,41v-155,0,-280,-56,-280,-207v0,-190,150,-270,287,-333v24,-11,48,-18,67,-23r86,77v-97,45,-183,82,-224,170v-9,19,-12,41,-12,64","w":0},"\u02c7":{"d":"872,-1462r-272,325r-240,0r-274,-325r246,0r147,153r146,-153r247,0","w":1100},"\u00b0":{"d":"126,-1517v54,-136,223,-237,404,-165v108,43,185,139,185,287v0,146,-77,246,-185,287v-223,84,-424,-57,-428,-289v0,-43,9,-82,24,-120xm408,-1548v-94,0,-150,65,-150,159v0,86,59,148,145,148v96,0,154,-57,154,-152v0,-95,-56,-155,-149,-155","w":815},"`":{"d":"461,-1178r-293,-286r0,-25r326,0r196,311r-229,0","w":774},"\u00b4":{"d":"256,-1489r326,0r0,25r-306,286r-235,0","w":680},"\u00a8":{"d":"225,-1165v-108,0,-178,-70,-178,-178v0,-108,70,-179,178,-179v106,0,176,73,176,179v0,106,-70,178,-176,178xm705,-1165v-108,0,-179,-71,-179,-178v0,-107,71,-179,179,-179v106,0,176,73,176,179v0,106,-70,178,-176,178","w":940},"\u02da":{"d":"314,-1352v55,-140,228,-239,415,-169v139,52,241,234,170,415v-54,138,-235,241,-416,170v-138,-54,-241,-235,-169,-416xm606,-1352v-75,0,-125,48,-125,123v0,75,49,125,125,125v75,0,123,-50,123,-125v0,-75,-48,-123,-123,-123","w":1200},"\u02d9":{"d":"270,-1192v-108,0,-178,-70,-178,-178v0,-108,70,-178,178,-178v106,0,176,72,176,178v0,106,-70,178,-176,178","w":539},"\u0131":{"d":"80,-1037r467,1r0,762r142,0r0,274r-608,0r0,-274r156,0r0,-488r-157,0r0,-275","w":790},"\u00c6":{"d":"-34,-274r126,0r791,-1242r1149,0r0,517r-326,0r0,-215r-370,0r0,305r290,0r0,274r-290,0r0,361r370,0r0,-269r326,0r0,543r-1149,0r0,-274r121,0r0,-138r-497,0r-83,138r116,0r0,274r-574,0r0,-274xm671,-686r333,0r0,-568","w":2093,"k":{"V":100,"T":100}},"\u00e6":{"d":"306,-612v113,-38,290,-26,405,-1v11,-134,-74,-180,-199,-180v-130,0,-216,27,-303,72r-96,-194v123,-83,261,-144,450,-144v148,0,245,29,331,105v85,-73,208,-128,359,-127v317,1,482,205,514,485v5,45,3,76,3,92v0,16,0,34,-1,51r-763,0v11,226,316,249,510,171r73,-27r110,205v-123,75,-231,131,-428,131v-185,0,-325,-68,-416,-164v-89,89,-207,163,-388,162v-184,-1,-310,-75,-368,-201v-36,-79,-35,-185,1,-264v39,-85,110,-140,206,-172xm477,-422v-68,4,-123,34,-123,103v0,69,55,108,135,108v118,0,195,-41,260,-94v-14,-36,-26,-77,-32,-117r-240,0xm1448,-664v-21,-102,-77,-167,-203,-167v-134,0,-202,64,-230,167r433,0","w":1851},"\u00fe":{"d":"479,-1018v116,-68,302,-78,436,-16v185,85,326,248,326,504v0,255,-136,421,-319,503v-132,59,-312,56,-443,-3r0,227r225,0r0,274r-676,0r0,-274r144,0r0,-1478r-144,0r0,-275r451,0r0,538xm936,-528v0,-158,-95,-258,-250,-258v-95,0,-164,48,-207,108r0,307v48,82,185,138,302,87v89,-40,155,-119,155,-244","w":1198},"\u00de":{"d":"112,-1516r649,0r0,275r-158,0r0,47v155,2,308,-9,425,34v174,64,320,183,320,404v0,214,-126,334,-296,396v-116,43,-289,35,-449,36r0,50r158,0r0,274r-649,0r0,-274r159,0r0,-967r-159,0r0,-275xm987,-754v0,-121,-108,-167,-248,-166r-136,0r0,326v181,3,384,9,384,-160","w":1450},"\u00b9":{"d":"51,-1034r131,0r0,-250r-141,67r0,-233r238,-127r112,0r0,543r121,0r0,194r-461,0r0,-194","w":539},"\u00b2":{"d":"80,-1303v-7,-220,183,-308,397,-262v126,27,239,175,157,315v-51,87,-150,135,-224,203r249,0r0,205r-573,0r0,-192r270,-201v31,-26,58,-42,58,-90v0,-26,-22,-41,-52,-41v-40,0,-56,26,-57,63r-225,0","w":721},"\u00b3":{"d":"362,-1280v29,0,49,-27,48,-59v-1,-28,-23,-55,-56,-53v-39,2,-63,24,-61,71r-219,0v-1,-178,107,-270,287,-270v123,0,211,63,258,145v41,71,20,180,-25,224v57,44,83,158,40,241v-47,92,-139,158,-275,158v-187,0,-294,-98,-301,-279r219,0v2,51,23,81,76,82v46,0,70,-25,71,-67v2,-76,-96,-58,-170,-60r0,-133r108,0","w":721},"\u00ba":{"d":"286,-872v-162,-65,-283,-264,-196,-478v53,-131,172,-227,352,-227v179,0,297,99,350,229v86,212,-36,412,-196,476v-92,37,-219,37,-310,0xm442,-1346v-88,0,-155,50,-155,136v0,84,68,139,155,139v86,0,152,-55,152,-139v0,-86,-65,-136,-152,-136","w":883},"\u00aa":{"d":"485,-1577v184,0,305,72,306,258r0,224r94,0r0,203r-314,0r0,-17v-97,54,-277,33,-345,-29v-45,-42,-72,-83,-70,-170v3,-147,102,-204,254,-207v58,-1,109,8,158,15v-4,-70,-55,-78,-126,-78v-87,0,-134,9,-196,41r-72,-141v90,-59,176,-99,311,-99xm369,-1113v2,46,16,63,63,63v57,0,103,-11,138,-33r0,-70r-160,0v-20,1,-42,12,-41,40","w":1006},"\u00a4":{"d":"244,-490v-35,-71,-62,-151,-62,-251v0,-101,26,-183,64,-253r-195,-212r264,-242r194,212v114,-57,307,-57,422,-1r193,-211r265,242r-194,211v38,70,65,153,65,254v0,101,-27,186,-65,255r179,191r-264,240r-178,-191v-128,59,-306,54,-426,-2r-176,193r-264,-240xm819,-982v-223,-83,-410,115,-331,331v41,111,187,188,331,133v111,-42,193,-188,134,-331v-25,-61,-72,-110,-134,-133","w":1438},"\u00ac":{"d":"1526,-1036r0,788r-287,0r0,-534r-1188,0r0,-254r1475,0","w":1597},"\u00b5":{"d":"679,-219v89,0,157,-64,181,-137r0,-680r323,0r0,762r125,0r0,274r-438,0r0,-88v-80,78,-229,119,-384,91r0,468r-332,0r0,-1507r335,0r0,610v-3,130,71,207,190,207","w":1350},"\u00b7":{"d":"379,-455v-108,0,-178,-70,-178,-178v0,-108,70,-178,178,-178v106,0,176,72,176,178v0,106,-70,178,-176,178","w":721},"\u00a1":{"d":"317,-807v-108,0,-178,-70,-178,-178v0,-108,70,-178,178,-178v106,0,176,72,176,178v0,106,-70,178,-176,178xm180,-596r287,0r41,1067r-369,0","w":696},"\u00bf":{"d":"558,-786v-108,0,-178,-70,-178,-178v0,-108,70,-178,178,-178v106,0,176,72,176,178v0,106,-70,178,-176,178xm982,18v-10,289,-185,434,-477,434v-211,0,-352,-95,-419,-246v-50,-115,-48,-277,14,-384v35,-60,82,-121,153,-172v114,-82,190,-160,182,-359r313,0v0,47,-2,88,-2,123v0,181,-78,262,-184,340v-87,65,-153,125,-154,270v0,73,39,133,109,133v106,1,148,-60,147,-170","w":1100},"^":{"d":"771,-1513r404,790r-296,0r-263,-528r-274,528r-290,0r416,-790r303,0","w":1229},"\u00a6":{"d":"123,-1729r252,0r0,758r-252,0r0,-758xm123,-487r252,0r0,757r-252,0r0,-757","w":594},"\u2044":{"d":"1042,-1577r256,0r-1245,1638r-262,0","w":1200},"\u00bc":{"d":"1660,-1577r256,0r-1245,1638r-262,0xm448,-1034r131,0r0,-250r-141,67r0,-233r238,-127r112,0r0,543r121,0r0,194r-461,0r0,-194xm1412,-348r280,-416r215,0r-282,422r168,0r0,-166r202,0r0,166r105,0r0,160r-105,0r0,182r-202,0r0,-182r-379,0","w":2350},"\u00bd":{"d":"504,-1034r131,0r0,-250r-141,67r0,-233r238,-127r112,0r0,543r121,0r0,194r-461,0r0,-194xm1716,-1577r256,0r-1245,1638r-262,0xm1485,-459v-7,-220,183,-308,397,-262v126,27,239,175,157,315v-51,87,-150,135,-224,203r249,0r0,205r-573,0r0,-192r270,-201v31,-26,58,-42,58,-90v0,-26,-22,-41,-52,-41v-40,0,-56,26,-57,63r-225,0","w":2446},"\u00be":{"d":"1576,-1577r256,0r-1245,1638r-262,0xm1328,-348r280,-416r215,0r-282,422r168,0r0,-166r202,0r0,166r105,0r0,160r-105,0r0,182r-202,0r0,-182r-379,0xm594,-1280v29,0,49,-27,48,-59v-1,-28,-23,-55,-56,-53v-39,2,-63,24,-61,71r-219,0v-1,-178,107,-270,287,-270v123,0,211,63,258,145v41,71,20,180,-25,224v57,44,83,158,40,241v-47,92,-139,158,-275,158v-187,0,-294,-98,-301,-279r219,0v2,51,23,81,76,82v46,0,70,-25,71,-67v2,-76,-96,-58,-170,-60r0,-133r108,0","w":2266},"\u00d8":{"d":"996,-1v-208,65,-447,10,-585,-89r-94,124r-262,0r201,-263v-146,-160,-239,-454,-164,-739v72,-273,246,-466,510,-548v202,-63,437,-12,574,82r130,-170r256,0r-230,303v151,160,254,458,176,751v-73,273,-248,467,-512,549xm605,-345v85,63,245,76,353,21v171,-88,277,-325,216,-578v-11,-46,-29,-87,-50,-126xm982,-1179v-85,-58,-238,-69,-341,-15v-168,88,-275,316,-219,570v9,43,25,83,44,120","w":1591},"\u00f8":{"d":"838,-18v-139,62,-352,53,-478,-11r-68,90r-262,0r164,-216v-118,-122,-176,-381,-91,-579v82,-191,246,-333,510,-333v94,0,171,20,239,50r114,-150r256,0r-204,269v84,90,146,214,146,376v0,257,-139,421,-326,504xm834,-655r-296,392v237,67,388,-170,296,-392xm436,-719v-61,59,-101,209,-51,315r289,-380v-95,-22,-187,16,-238,65","w":1196},"\u00d0":{"d":"82,-1516r582,0v321,8,517,166,643,373v88,144,132,381,74,585v-75,267,-253,453,-517,531v-63,19,-131,27,-200,27r-582,0r0,-274r121,0r0,-347r-138,0r0,-274r138,0r0,-346r-121,0r0,-275xm535,-621r0,347v112,0,201,6,280,-38v142,-80,240,-232,240,-448v0,-214,-98,-367,-240,-444v-79,-43,-168,-37,-280,-37r0,346r157,0r0,274r-157,0","w":1468},"\u00f0":{"d":"985,-1213r-135,33r226,409v72,116,108,317,36,465v-83,170,-240,302,-481,302v-244,0,-403,-131,-483,-306v-50,-110,-59,-255,-10,-370v77,-180,225,-307,474,-314r-65,-114r-219,53r-64,-268r142,-34r-101,-177r350,0r57,104r209,-50xm856,-506v0,-134,-85,-202,-219,-205v-165,-4,-284,139,-214,295v32,72,108,119,208,119v137,0,225,-81,225,-209","w":1250},"\u00c0":{"d":"893,-274r151,0r-68,-218r-466,0r-68,218r160,0r0,274r-575,0r0,-274r113,0r413,-1242r401,0r404,1242r110,0r0,274r-575,0r0,-274xm589,-748r306,0r-154,-493xm777,-1658r-293,-286r0,-25r326,0r196,311r-229,0","w":1491,"k":{"Y":150,"V":100,"T":100}},"\u00c1":{"d":"893,-274r151,0r-68,-218r-466,0r-68,218r160,0r0,274r-575,0r0,-274r113,0r413,-1242r401,0r404,1242r110,0r0,274r-575,0r0,-274xm589,-748r306,0r-154,-493xm690,-1969r326,0r0,25r-306,286r-235,0","w":1491,"k":{"Y":150,"V":100,"T":100}},"\u00c2":{"d":"893,-274r151,0r-68,-218r-466,0r-68,218r160,0r0,274r-575,0r0,-274r113,0r413,-1242r401,0r404,1242r110,0r0,274r-575,0r0,-274xm589,-748r306,0r-154,-493xm352,-1656r272,-325r240,0r274,325r-245,0r-148,-153r-145,153r-248,0","w":1491,"k":{"Y":150,"V":100,"T":100}},"\u00c3":{"d":"893,-274r151,0r-68,-218r-466,0r-68,218r160,0r0,274r-575,0r0,-274r113,0r413,-1242r401,0r404,1242r110,0r0,274r-575,0r0,-274xm589,-748r306,0r-154,-493xm586,-1737v-61,-2,-100,30,-127,63r-152,-70v38,-124,140,-215,285,-215v121,0,185,93,301,93v66,0,103,-23,133,-68r158,70v-44,114,-126,210,-275,215v-136,4,-198,-83,-323,-88","w":1491,"k":{"Y":150,"V":100,"T":100}},"\u00c4":{"d":"893,-274r151,0r-68,-218r-466,0r-68,218r160,0r0,274r-575,0r0,-274r113,0r413,-1242r401,0r404,1242r110,0r0,274r-575,0r0,-274xm589,-748r306,0r-154,-493xm506,-1645v-108,0,-178,-70,-178,-178v0,-108,70,-179,178,-179v106,0,176,73,176,179v0,106,-70,178,-176,178xm986,-1645v-108,0,-179,-71,-179,-178v0,-107,71,-179,179,-179v106,0,176,73,176,179v0,106,-70,178,-176,178","w":1491,"k":{"Y":150,"V":100,"T":100}},"\u00c5":{"d":"893,-274r151,0r-68,-218r-466,0r-68,218r160,0r0,274r-575,0r0,-274r113,0r413,-1242r401,0r404,1242r110,0r0,274r-575,0r0,-274xm589,-748r306,0r-154,-493xm453,-1832v55,-140,228,-239,415,-169v139,52,241,234,170,415v-54,138,-235,241,-416,170v-138,-54,-241,-235,-169,-416xm745,-1832v-75,0,-125,48,-125,123v0,75,49,125,125,125v75,0,123,-50,123,-125v0,-75,-48,-123,-123,-123","w":1491,"k":{"Y":150,"V":100,"T":100}},"\u00c8":{"d":"113,-1516r1206,0r0,517r-326,0r0,-215r-389,0r0,299r301,0r0,290r-301,0r0,351r389,0r0,-269r326,0r0,543r-1206,0r0,-274r159,0r0,-940r-159,0r0,-302xm722,-1658r-293,-286r0,-25r326,0r196,311r-229,0","w":1380},"\u00c9":{"d":"113,-1516r1206,0r0,517r-326,0r0,-215r-389,0r0,299r301,0r0,290r-301,0r0,351r389,0r0,-269r326,0r0,543r-1206,0r0,-274r159,0r0,-940r-159,0r0,-302xm634,-1969r326,0r0,25r-306,286r-235,0","w":1380},"\u00cb":{"d":"113,-1516r1206,0r0,517r-326,0r0,-215r-389,0r0,299r301,0r0,290r-301,0r0,351r389,0r0,-269r326,0r0,543r-1206,0r0,-274r159,0r0,-940r-159,0r0,-302xm451,-1645v-108,0,-178,-70,-178,-178v0,-108,70,-179,178,-179v106,0,176,73,176,179v0,106,-70,178,-176,178xm931,-1645v-108,0,-179,-71,-179,-178v0,-107,71,-179,179,-179v106,0,176,73,176,179v0,106,-70,178,-176,178","w":1380},"\u00ca":{"d":"113,-1516r1206,0r0,517r-326,0r0,-215r-389,0r0,299r301,0r0,290r-301,0r0,351r389,0r0,-269r326,0r0,543r-1206,0r0,-274r159,0r0,-940r-159,0r0,-302xm297,-1656r272,-325r240,0r274,325r-245,0r-148,-153r-145,153r-248,0","w":1380},"\u00c7":{"d":"799,-1544v199,0,269,45,392,151r224,0r0,338r-309,0v-78,-113,-143,-176,-307,-176v-197,0,-306,135,-363,289v-67,181,-10,411,81,514v65,74,154,139,282,139v174,0,274,-107,331,-231r322,90v-67,207,-219,351,-426,422v-205,70,-463,21,-600,-72v-204,-139,-360,-349,-360,-680v0,-361,192,-602,446,-722v89,-42,184,-62,287,-62xm542,293v136,-15,201,-110,226,-240r243,86v-58,194,-202,309,-444,316","w":1554},"\u010c":{"d":"799,-1544v199,0,269,45,392,151r224,0r0,338r-309,0v-78,-113,-143,-176,-307,-176v-197,0,-306,135,-363,289v-67,181,-10,411,81,514v65,74,154,139,282,139v174,0,274,-107,331,-231r322,90v-67,207,-219,351,-426,422v-205,70,-463,21,-600,-72v-204,-139,-360,-349,-360,-680v0,-361,192,-602,446,-722v89,-42,184,-62,287,-62xm1170,-1942r-272,325r-240,0r-274,-325r246,0r147,153r146,-153r247,0","w":1554},"\u00cc":{"d":"113,-1516r649,0r0,274r-160,0r0,968r160,0r0,274r-649,0r0,-274r157,0r0,-968r-157,0r0,-274xm438,-1658r-293,-286r0,-25r326,0r196,311r-229,0","w":810},"\u00cd":{"d":"113,-1516r649,0r0,274r-160,0r0,968r160,0r0,274r-649,0r0,-274r157,0r0,-968r-157,0r0,-274xm349,-1969r326,0r0,25r-306,286r-235,0","w":810},"\u00ce":{"d":"113,-1516r649,0r0,274r-160,0r0,968r160,0r0,274r-649,0r0,-274r157,0r0,-968r-157,0r0,-274xm13,-1656r272,-325r240,0r274,325r-245,0r-148,-153r-145,153r-248,0","w":810},"\u00cf":{"d":"113,-1516r649,0r0,274r-160,0r0,968r160,0r0,274r-649,0r0,-274r157,0r0,-968r-157,0r0,-274xm167,-1645v-108,0,-178,-70,-178,-178v0,-108,70,-179,178,-179v106,0,176,73,176,179v0,106,-70,178,-176,178xm647,-1645v-108,0,-179,-71,-179,-178v0,-107,71,-179,179,-179v106,0,176,73,176,179v0,106,-70,178,-176,178","w":810},"\u00d1":{"d":"1071,-1516r576,0r0,275r-123,0r0,1241r-332,0r-631,-980r0,706r127,0r0,274r-575,0r0,-274r125,0r0,-967r-123,0r0,-275r458,0r627,993r0,-718r-129,0r0,-275xm689,-1737v-61,-2,-100,30,-127,63r-152,-70v38,-124,140,-215,285,-215v121,0,185,93,301,93v66,0,103,-23,133,-68r158,70v-44,114,-126,210,-275,215v-136,4,-198,-83,-323,-88","w":1698},"\u00d2":{"d":"1434,-362v-145,261,-440,468,-832,361v-266,-73,-443,-274,-510,-548v-97,-400,84,-730,334,-888v140,-88,369,-141,570,-79v264,83,437,275,512,548v58,213,6,462,-74,606xm641,-324v94,50,223,50,317,0v141,-74,234,-225,234,-434v0,-210,-94,-361,-235,-436v-94,-50,-223,-50,-316,0v-141,75,-235,226,-235,436v0,208,95,359,235,434xm831,-1658r-293,-286r0,-25r326,0r196,311r-229,0","w":1620},"\u00d3":{"d":"1434,-362v-145,261,-440,468,-832,361v-266,-73,-443,-274,-510,-548v-97,-400,84,-730,334,-888v140,-88,369,-141,570,-79v264,83,437,275,512,548v58,213,6,462,-74,606xm641,-324v94,50,223,50,317,0v141,-74,234,